svm_type c_svc
kernel_type sigmoid
gamma 0.333333
coef0 0
nr_class 2
total_sv 3080
rho -0.672773
label 1 0
probA -1.1855
probB -0.169724
nr_sv 1540 1540
SV
1 1:0.35 2:0.291667 3:0.0839427 
1 1:0.2 2:0.111111 3:0.0581093 
1 1:0.1 2:0.047619 3:0.0622683 
1 1:0.15 2:0.0714286 3:0.0821052 
1 1:0.05 2:0.0208333 3:0.0690469 
1 1:0.3 2:0.25 3:0.0642301 
1 1:0.05 2:0.0277778 3:0.0491028 
1 1:0.2 2:0.0952381 3:0.0616221 
1 1:0.4 2:0.133333 3:0.184901 
1 1:0.2 2:0.133333 3:0.0525194 
1 3:0.0431451 
1 1:0.55 2:0.261905 3:0.0459494 
1 1:0.4 2:0.133333 3:0.0684312 
1 1:0.3 2:0.125 3:0.108009 
1 1:0.5 2:0.185185 3:0.0704986 
1 1:0.15 2:0.1 3:0.0521891 
1 1:0.45 2:0.214286 3:0.0706464 
1 1:0.25 2:0.119048 3:0.0606349 
1 3:0.0401796 
1 1:0.55 2:0.366667 3:0.0632607 
1 1:0.1 2:0.0666667 3:0.10095 
1 1:0.5 2:0.238095 3:0.0744327 
1 1:0.3 2:0.1 3:0.104891 
1 1:0.35 2:0.106061 3:0.231524 
1 1:0.45 2:0.1 3:0.10228 
1 1:0.4 2:0.166667 3:0.0524055 
1 1:0.25 2:0.138889 3:0.0607024 
1 1:0.15 2:0.0833333 3:0.103207 
1 1:0.45 2:0.75 3:0.099618 
1 1:0.4 2:0.333333 3:0.0527254 
1 1:0.55 2:0.458333 3:0.0730835 
1 1:0.25 2:0.138889 3:0.0500082 
1 1:0.2 2:0.133333 3:0.0973977 
1 1:0.5 2:0.238095 3:0.0525632 
1 1:0.25 2:0.208333 3:0.137747 
1 1:0.15 2:0.125 3:0.0334931 
1 1:0.35 2:0.0972222 3:0.0548125 
1 1:0.15 2:0.0833333 3:0.0573353 
1 1:0.3 2:0.166667 3:0.0479232 
1 1:0.1 2:0.037037 3:0.0625283 
1 1:0.6 2:0.166667 3:0.0704088 
1 1:0.15 2:0.0833333 3:0.0586686 
1 1:0.55 2:0.366667 3:0.0934758 
1 1:0.25 2:0.0694444 3:0.0812954 
1 1:0.05 2:0.0416667 3:0.0686065 
1 1:0.15 2:0.0625 3:0.0593857 
1 1:0.1 2:0.0666667 3:0.0834776 
1 1:0.15 2:0.166667 3:0.0433014 
1 1:0.45 2:0.15 3:0.0525716 
1 1:0.25 2:0.119048 3:0.0762157 
1 1:0.35 2:0.291667 3:0.0687357 
1 1:0.5 2:0.555556 3:0.0615337 
1 1:0.25 2:0.119048 3:0.062251 
1 1:0.6 2:0.5 3:0.051481 
1 1:0.4 2:0.102564 3:0.0986866 
1 1:0.05 2:0.0416667 3:0.0626514 
1 1:0.45 2:0.0882353 3:0.0675038 
1 1:0.15 2:0.0416667 3:0.126902 
1 1:0.45 2:0.136364 3:0.0939177 
1 1:0.15 2:0.05 3:0.11733 
1 1:0.3 2:0.142857 3:0.0660202 
1 1:0.35 2:0.145833 3:0.0652884 
1 1:0.2 2:0.222222 3:0.0679126 
1 1:0.15 2:0.0555556 3:0.0678315 
1 1:0.35 2:0.291667 3:0.0588594 
1 1:0.25 2:0.138889 3:0.0778606 
1 1:0.25 2:0.166667 3:0.0677749 
1 1:0.3 2:0.166667 3:0.206067 
1 1:0.25 2:0.0833333 3:0.0783293 
1 1:0.4 2:0.333333 3:0.0455257 
1 1:0.35 2:0.291667 3:0.0675258 
1 1:0.25 2:0.277778 3:0.0862708 
1 1:0.4 2:0.190476 3:0.0590272 
1 1:0.2 2:0.133333 3:0.0728248 
1 1:0.05 2:0.0416667 3:0.072598 
1 1:0.15 2:0.0625 3:0.0962781 
1 1:0.15 2:0.1 3:0.0561738 
1 1:0.25 2:0.208333 3:0.0730824 
1 1:0.25 2:0.166667 3:0.0699861 
1 1:0.2 2:0.0740741 3:0.0736254 
1 1:0.05 2:0.0333333 3:0.060587 
1 1:0.15 2:0.1 3:0.115804 
1 1:0.35 2:0.166667 3:0.0516108 
1 1:0.35 2:0.116667 3:0.0900222 
1 1:0.1 2:0.0555556 3:0.0492391 
1 1:0.25 2:0.277778 3:0.0867149 
1 1:0.15 2:0.0555556 3:0.0758171 
1 1:0.4 2:0.333333 3:0.105448 
1 1:0.15 2:0.1 3:0.0807474 
1 1:0.05 2:0.0416667 3:0.0685871 
1 1:0.05 2:0.0416667 3:0.0656909 
1 1:0.3 2:0.2 3:0.0945821 
1 1:0.15 2:0.1 3:0.0893076 
1 1:0.05 2:0.0138889 3:0.0744255 
1 1:0.05 2:0.0555556 3:0.0543416 
1 1:0.2 2:0.222222 3:0.0677928 
1 1:0.3 2:0.5 3:0.0760165 
1 1:0.1 2:0.0833333 3:0.0864202 
1 1:0.25 2:0.0925926 3:0.0702234 
1 1:0.35 2:0.388889 3:0.0911411 
1 1:0.55 2:0.261905 3:0.0546632 
1 1:0.35 2:0.145833 3:0.106375 
1 1:0.3 2:0.125 3:0.06339 
1 1:0.35 2:0.0972222 3:0.150645 
1 1:0.4 2:0.133333 3:0.0536234 
1 1:0.9 2:0.375 3:0.0664832 
1 1:0.3 2:0.25 3:0.100234 
1 1:0.5 2:0.555556 3:0.0526059 
1 1:0.35 2:0.145833 3:0.0493951 
1 1:0.5 2:0.238095 3:0.0698138 
1 1:0.4 2:0.190476 3:0.0420459 
1 1:0.4 2:0.266667 3:0.0468177 
1 1:0.05 2:0.0416667 3:0.0648384 
1 1:0.15 2:0.0714286 3:0.0453425 
1 1:0.25 2:0.208333 3:0.0586019 
1 1:0.2 2:0.0740741 3:0.114343 
1 1:0.25 2:0.0833333 3:0.0591848 
1 1:0.5 2:0.416667 3:0.0625298 
1 1:0.35 2:0.291667 3:0.0727372 
1 1:0.2 2:0.0555556 3:0.0627048 
1 1:0.55 2:0.261905 3:0.0780059 
1 1:0.6 2:0.285714 3:0.0705052 
1 1:0.4 2:0.148148 3:0.0618552 
1 1:0.45 2:0.3 3:0.066964 
1 1:0.15 2:0.0833333 3:0.0553651 
1 1:0.1 2:0.037037 3:0.0926847 
1 1:0.1 2:0.037037 3:0.101688 
1 1:0.2 2:0.111111 3:0.0648009 
1 1:0.45 2:0.214286 3:0.0603264 
1 1:0.45 2:0.1875 3:0.13171 
1 1:0.3 2:0.2 3:0.0574312 
0.7100214044193977 1:0.15 2:0.0833333 3:0.138913 
1 1:0.25 2:0.277778 3:0.059873 
1 1:0.15 2:0.0555556 3:0.0833732 
1 1:0.25 2:0.119048 3:0.0853541 
1 1:0.25 2:0.119048 3:0.0731831 
1 1:0.6 2:0.25 3:0.0564628 
1 1:0.4 2:0.266667 3:0.0759656 
1 1:0.25 2:0.119048 3:0.0566145 
1 1:0.2 2:0.0666667 3:0.113587 
1 1:0.75 2:0.625 3:0.0630675 
1 1:0.2 2:0.0952381 3:0.0869175 
1 1:0.15 2:0.1 3:0.0858196 
1 1:0.25 2:0.0438596 3:0.0952999 
1 1:0.45 2:0.125 3:0.0385551 
1 1:0.35 2:0.233333 3:0.0655028 
1 1:0.2 2:0.111111 3:0.0757747 
1 1:0.15 2:0.0625 3:0.0558653 
1 1:0.1 2:0.111111 3:0.0761485 
1 1:0.5 2:0.277778 3:0.12332 
1 1:0.1 2:0.0666667 3:0.0829567 
1 1:0.15 2:0.166667 3:0.101094 
1 1:0.55 2:0.203704 3:0.0569959 
1 1:0.15 2:0.166667 3:0.0938462 
1 1:0.2 2:0.0952381 3:0.0646942 
1 1:0.3 2:0.0909091 3:0.106552 
1 1:0.6 2:0.166667 3:0.0688129 
1 1:0.1 2:0.047619 3:0.0626832 
1 1:0.4 2:0.190476 3:0.0982122 
1 1:0.3 2:0.111111 3:0.0759457 
1 1:0.05 2:0.0238095 3:0.0578897 
1 1:1 2:0.47619 3:0.0696076 
1 1:0.55 2:0.305556 3:0.0397095 
1 1:0.2 2:0.0666667 3:0.0697882 
1 1:0.2 2:0.0833333 3:0.0780021 
1 1:0.2 2:0.0666667 3:0.0674562 
1 1:0.15 2:0.0833333 3:0.0638761 
1 1:0.1 2:0.0833333 3:0.0416634 
1 1:0.15 2:0.0625 3:0.0627528 
1 1:0.55 2:0.261905 3:0.152111 
1 1:0.1 2:0.037037 3:0.0726875 
1 1:0.3 2:0.1 3:0.0726986 
1 1:0.25 2:0.208333 3:0.0726292 
1 1:0.05 2:0.0416667 3:0.05001 
1 1:0.35 2:0.194444 3:0.0484365 
1 1:0.15 2:0.0714286 3:0.0532826 
1 1:0.55 2:0.261905 3:0.0432033 
1 1:0.35 2:0.12963 3:0.0666877 
1 1:0.2 2:0.0952381 3:0.0627828 
1 1:0.55 2:0.366667 3:0.0726568 
1 1:0.15 2:0.125 3:0.0494719 
1 1:0.2 2:0.222222 3:0.0830308 
1 1:0.3 2:0.333333 3:0.084443 
1 1:0.2 2:0.0740741 3:0.0525151 
1 1:0.05 2:0.0238095 3:0.0525187 
1 1:0.1 2:0.111111 3:0.0644044 
1 1:0.45 2:0.3 3:0.0706928 
1 1:0.35 2:0.116667 3:0.052507 
1 1:0.25 2:0.0694444 3:0.0494979 
1 1:0.3 2:0.142857 3:0.0721936 
1 1:0.3 2:0.2 3:0.066454 
1 1:0.35 2:0.145833 3:0.0656183 
1 1:0.2 2:0.0740741 3:0.0699151 
1 1:0.35 2:0.388889 3:0.0650188 
1 1:0.3 2:0.166667 3:0.0785298 
1 1:0.1 2:0.037037 3:0.0497188 
1 1:0.6 2:0.181818 3:0.0903117 
1 1:0.55 2:0.166667 3:0.0911889 
1 1:0.3 2:0.0909091 3:0.0937497 
1 1:0.05 2:0.0238095 3:0.0669952 
1 1:0.25 2:0.138889 3:0.0623009 
1 1:0.2 2:0.0666667 3:0.0705321 
1 1:0.4 2:0.148148 3:0.100705 
1 1:0.35 2:0.388889 3:0.0721748 
1 1:0.05 2:0.0208333 3:0.0648729 
1 1:0.6 2:0.333333 3:0.069132 
1 1:0.05 2:0.0555556 3:0.072233 
1 1:0.25 2:0.119048 3:0.0672473 
1 1:0.55 2:0.366667 3:0.112883 
1 1:0.25 2:0.119048 3:0.0545076 
1 3:0.0305959 
1 1:0.35 2:0.166667 3:0.111015 
1 1:0.1 2:0.0333333 3:0.077813 
1 1:0.6 2:0.4 3:0.0863091 
1 1:0.3 2:0.125 3:0.0584483 
1 1:0.4 2:0.266667 3:0.0903626 
1 1:0.3 2:0.25 3:0.0786637 
1 1:0.3 2:0.142857 3:0.0523086 
1 1:0.5 2:0.238095 3:0.0806167 
1 1:0.2 2:0.0833333 3:0.0636646 
1 1:0.6 2:0.166667 3:0.0496331 
1 1:0.3 2:0.166667 3:0.139017 
1 3:0.0293543 
1 1:0.1 2:0.111111 3:0.0538053 
1 1:0.45 2:0.25 3:0.061472 
1 1:0.1 2:0.0333333 3:0.0426192 
1 1:0.2 2:0.0740741 3:0.0518393 
1 1:0.3 2:0.25 3:0.0313029 
1 1:0.5 2:0.128205 3:0.0457906 
1 1:0.3 2:0.0909091 3:0.0713063 
1 1:0.45 2:0.214286 3:0.0586532 
1 1:0.15 2:0.05 3:0.0878955 
1 1:0.4 2:0.222222 3:0.0599068 
1 1:0.35 2:0.233333 3:0.105695 
1 1:0.5 2:0.185185 3:0.0765815 
1 1:0.55 2:0.261905 3:0.0730453 
1 1:0.1 2:0.0666667 3:0.0756319 
1 1:0.5 2:0.238095 3:0.0733875 
1 1:0.05 2:0.0119048 3:0.051391 
1 1:0.25 2:0.0757576 3:0.0786741 
1 1:0.3 2:0.166667 3:0.154444 
1 1:0.1 2:0.037037 3:0.0724018 
1 1:0.4 2:0.0888889 3:0.0962858 
1 1:0.25 2:0.138889 3:0.0586008 
1 1:0.3 2:0.125 3:0.0854854 
1 1:0.35 2:0.291667 3:0.0936276 
1 1:0.45 2:0.214286 3:0.0595589 
1 1:0.15 2:0.0555556 3:0.0810158 
1 1:0.8 2:0.444444 3:0.0555055 
1 1:0.5 2:0.277778 3:0.0492499 
1 1:0.15 2:0.125 3:0.0595751 
1 1:0.4 2:0.166667 3:0.0695069 
1 1:0.75 2:0.208333 3:0.0947704 
1 1:0.3 2:0.333333 3:0.0878709 
1 1:0.15 2:0.0416667 3:0.0711136 
1 1:0.15 2:0.166667 3:0.0517176 
1 1:0.35 2:0.388889 3:0.0757653 
1 1:0.2 2:0.166667 3:0.0753575 
1 1:0.6 2:0.25 3:0.0802678 
1 1:0.25 2:0.104167 3:0.0505404 
1 1:0.2 2:0.0666667 3:0.0568758 
1 1:0.35 2:0.0777778 3:0.0910933 
1 1:0.25 2:0.166667 3:0.0501744 
1 1:0.2 2:0.133333 3:0.07401 
1 1:0.1 2:0.0833333 3:0.0725248 
1 1:0.35 2:0.12963 3:0.0267049 
1 1:0.15 2:0.125 3:0.0655315 
1 1:0.25 2:0.208333 3:0.0482918 
1 1:0.2 2:0.222222 3:0.089887 
1 1:0.35 2:0.0777778 3:0.0844932 
1 1:0.15 2:0.0555556 3:0.0742025 
1 1:0.4 2:0.148148 3:0.0478734 
1 1:0.35 2:0.166667 3:0.0664795 
1 1:0.1 2:0.047619 3:0.078318 
1 1:0.55 2:0.458333 3:0.0789902 
1 1:0.4 2:0.133333 3:0.122333 
1 1:0.3 2:0.142857 3:0.0447295 
1 1:0.45 2:0.1875 3:0.0885964 
1 1:0.25 2:0.166667 3:0.0922643 
1 1:0.3 2:0.142857 3:0.0775329 
1 1:0.4 2:0.148148 3:0.139444 
1 1:0.25 2:0.138889 3:0.0666397 
1 1:0.35 2:0.166667 3:0.0534477 
1 1:0.3 2:0.2 3:0.101061 
1 1:0.35 2:0.233333 3:0.115581 
1 1:0.05 2:0.0138889 3:0.0601634 
1 1:0.25 2:0.104167 3:0.110781 
1 1:0.1 2:0.0333333 3:0.100427 
1 1:0.3 2:0.125 3:0.070793 
1 1:0.2 2:0.0606061 3:0.0722831 
1 1:0.3 2:0.125 3:0.0765797 
1 1:0.2 2:0.0666667 3:0.0843362 
1 1:0.25 2:0.119048 3:0.0841896 
1 1:0.25 2:0.0925926 3:0.140932 
1 1:0.65 2:0.541667 3:0.0678371 
1 1:0.5 2:0.208333 3:0.0469338 
1 1:0.1 2:0.0555556 3:0.0602095 
1 1:0.15 2:0.125 3:0.043923 
1 1:0.35 2:0.166667 3:0.0864461 
1 1:0.25 2:0.208333 3:0.054335 
1 1:0.3 2:0.0714286 3:0.0770048 
1 1:0.35 2:0.145833 3:0.0626217 
1 1:0.2 2:0.111111 3:0.0472314 
1 1:0.2 2:0.0952381 3:0.0401947 
1 1:0.25 2:0.0694444 3:0.165525 
1 1:0.2 2:0.0512821 3:0.0671774 
1 1:0.25 2:0.0833333 3:0.0632948 
1 1:0.3 2:0.142857 3:0.0912051 
1 1:0.2 2:0.0740741 3:0.0800177 
1 1:0.3 2:0.1 3:0.0558766 
1 1:0.55 2:0.305556 3:0.122786 
1 1:0.15 2:0.1 3:0.0424034 
1 1:0.2 2:0.0952381 3:0.0640549 
1 1:0.1 2:0.025641 3:0.070829 
1 1:0.2 2:0.166667 3:0.0431977 
1 1:0.4 2:0.266667 3:0.112358 
1 1:0.4 2:0.444444 3:0.0990061 
1 1:0.5 2:0.333333 3:0.0718704 
1 1:0.15 2:0.05 3:0.0713741 
1 1:0.35 2:0.166667 3:0.0781535 
1 1:0.2 2:0.111111 3:0.0338884 
1 1:0.25 2:0.104167 3:0.0393142 
1 1:0.65 2:0.216667 3:0.095767 
1 1:0.5 2:0.277778 3:0.0466168 
1 1:0.4 2:0.333333 3:0.0371446 
1 1:0.25 2:0.104167 3:0.0770826 
1 3:0.0331762 
1 1:0.3 2:0.111111 3:0.0552517 
1 1:0.2 2:0.0952381 3:0.0763198 
1 1:0.5 2:0.416667 3:0.0582529 
1 1:0.55 2:0.611111 3:0.0458554 
1 1:0.2 2:0.0606061 3:0.056579 
1 1:0.35 2:0.166667 3:0.0601244 
1 1:0.15 2:0.166667 3:0.0615866 
1 1:0.4 2:0.190476 3:0.101805 
1 1:0.1 2:0.047619 3:0.0932022 
1 1:0.1 2:0.0416667 3:0.0654 
1 1:0.45 2:0.25 3:0.0917198 
1 1:0.1 2:0.0555556 3:0.0937138 
1 1:0.45 2:0.25 3:0.0720833 
1 1:0.55 2:0.203704 3:0.109638 
1 1:0.4 2:0.0740741 3:0.0936764 
1 1:0.3 2:0.1 3:0.0632674 
1 1:0.45 2:0.25 3:0.0533052 
1 1:0.05 2:0.0333333 3:0.0651188 
1 1:0.85 2:0.166667 3:0.0524681 
1 1:0.1 2:0.0555556 3:0.107338 
1 1:0.25 2:0.0694444 3:0.0699331 
1 1:0.5 2:0.333333 3:0.0384458 
1 1:0.6 2:0.4 3:0.114635 
1 1:0.35 2:0.194444 3:0.0511846 
1 1:0.15 2:0.0833333 3:0.0581091 
1 1:0.15 2:0.0833333 3:0.0539271 
1 1:0.2 2:0.0952381 3:0.0552114 
1 1:0.6 2:0.181818 3:0.0397997 
1 1:0.2 2:0.0833333 3:0.0744046 
1 1:0.35 2:0.12963 3:0.0742623 
1 1:0.5 2:0.238095 3:0.080081 
1 1:0.25 2:0.0925926 3:0.0771764 
1 1:0.35 2:0.194444 3:0.0887913 
1 1:0.1 2:0.0555556 3:0.0479142 
1 1:0.75 2:0.357143 3:0.0489476 
1 1:0.35 2:0.166667 3:0.0500527 
1 1:0.3 2:0.0909091 3:0.0517871 
1 1:0.3 2:0.25 3:0.043418 
1 1:0.8 2:0.222222 3:0.0709697 
1 1:0.15 2:0.166667 3:0.0810959 
1 1:0.4 2:0.133333 3:0.070278 
1 1:0.4 2:0.444444 3:0.0704746 
1 1:0.05 2:0.00925926 3:0.0602706 
1 1:0.5 2:0.208333 3:0.0795416 
1 1:0.35 2:0.145833 3:0.0448404 
1 1:0.3 2:0.111111 3:0.0629207 
1 1:0.55 2:0.130952 3:0.0696543 
1 1:0.5 2:0.208333 3:0.0780102 
1 1:0.15 2:0.0555556 3:0.0615957 
1 1:0.25 2:0.0757576 3:0.0510326 
1 1:0.3 2:0.142857 3:0.119014 
1 1:0.35 2:0.0972222 3:0.0620482 
1 1:0.3 2:0.142857 3:0.0696916 
1 1:0.45 2:0.214286 3:0.0530973 
1 1:0.3 2:0.142857 3:0.0634985 
1 1:0.25 2:0.138889 3:0.0611209 
1 1:0.25 2:0.0757576 3:0.0713326 
1 1:0.3 2:0.142857 3:0.0625923 
1 1:0.1 2:0.0833333 3:0.0852919 
1 1:0.4 2:0.190476 3:0.0619711 
1 1:0.2 2:0.166667 3:0.06928 
1 1:0.4 2:0.333333 3:0.0642693 
1 1:0.2 2:0.0952381 3:0.0182937 
1 1:0.35 2:0.166667 3:0.0343339 
1 1:0.1 2:0.0416667 3:0.0616894 
1 1:0.25 2:0.0925926 3:0.0830017 
1 1:0.2 2:0.111111 3:0.0569584 
1 1:0.15 2:0.0357143 3:0.0728555 
1 1:0.15 2:0.0714286 3:0.0658986 
1 1:0.35 2:0.194444 3:0.0804597 
1 1:0.55 2:0.101852 3:0.0700354 
1 1:0.5 2:0.238095 3:0.0610498 
1 1:0.1 2:0.047619 3:0.0839549 
1 1:0.2 2:0.166667 3:0.0667473 
1 1:0.35 2:0.116667 3:0.0634396 
1 1:0.45 2:0.1875 3:0.073632 
1 1:0.4 2:0.266667 3:0.0731808 
1 1:0.15 2:0.0454545 3:0.0718945 
1 1:0.2 2:0.0555556 3:0.0881917 
1 1:0.35 2:0.233333 3:0.0611449 
1 1:0.45 2:0.25 3:0.0740089 
1 1:0.5 2:0.208333 3:0.0454688 
1 1:0.1 2:0.0416667 3:0.0865946 
1 1:0.55 2:0.305556 3:0.0524021 
1 1:0.25 2:0.119048 3:0.0444381 
1 1:0.35 2:0.166667 3:0.0473492 
1 1:0.05 2:0.0166667 3:0.0633576 
1 1:0.15 2:0.0833333 3:0.0806807 
1 1:0.4 2:0.133333 3:0.100114 
1 1:0.15 2:0.1 3:0.0520296 
1 1:0.05 2:0.0277778 3:0.0712681 
1 1:0.3 2:0.142857 3:0.0753878 
1 1:0.25 2:0.0757576 3:0.127598 
1 1:0.45 2:0.25 3:0.0602631 
1 1:0.2 2:0.0952381 3:0.0446933 
1 1:0.2 2:0.111111 3:0.0581408 
1 1:0.35 2:0.166667 3:0.0428513 
1 1:0.3 2:0.333333 3:0.23863 
1 1:0.4 2:0.133333 3:0.063961 
1 1:0.35 2:0.233333 3:0.0532913 
1 3:0.0391706 
1 1:0.15 2:0.0714286 3:0.0539855 
1 1:0.45 2:0.5 3:0.0669836 
1 1:0.15 2:0.166667 3:0.0764004 
1 1:0.05 2:0.0277778 3:0.0526969 
1 1:0.15 2:0.0625 3:0.0915875 
1 1:0.2 2:0.222222 3:0.0834774 
1 1:0.3 2:0.142857 3:0.0846631 
1 1:0.25 2:0.138889 3:0.0724615 
1 1:0.15 2:0.1 3:0.0683668 
1 1:0.3 2:0.2 3:0.04813 
1 1:0.25 2:0.0595238 3:0.0682391 
1 1:0.2 2:0.0833333 3:0.0459184 
1 1:0.4 2:0.190476 3:0.056594 
1 1:0.35 2:0.291667 3:0.0480397 
1 1:0.15 2:0.0833333 3:0.0787308 
1 1:0.25 2:0.208333 3:0.062238 
1 1:0.45 2:0.214286 3:0.0997625 
1 1:0.6 2:0.666667 3:0.0865439 
1 1:0.25 2:0.104167 3:0.0459693 
1 1:0.55 2:0.305556 3:0.103298 
1 1:0.6 2:0.285714 3:0.0517443 
1 1:0.2 2:0.0606061 3:0.0507676 
1 1:0.3 2:0.0714286 3:0.0766078 
1 1:0.05 2:0.0208333 3:0.0621323 
1 1:0.45 2:0.1875 3:0.10443 
1 1:0.35 2:0.194444 3:0.070439 
1 1:0.2 2:0.0740741 3:0.0650549 
1 1:0.1 2:0.0666667 3:0.0626842 
1 1:0.4 2:0.190476 3:0.053103 
1 1:0.2 2:0.0952381 3:0.0927583 
1 1:0.2 2:0.0666667 3:0.0451735 
1 1:0.15 2:0.0416667 3:0.0675472 
1 1:0.55 2:0.229167 3:0.051823 
1 1:0.3 2:0.142857 3:0.0635821 
1 1:0.7 2:0.194444 3:0.0703489 
1 1:0.05 2:0.0238095 3:0.0630451 
1 1:0.35 2:0.291667 3:0.0502742 
1 1:0.2 2:0.0833333 3:0.0447393 
1 1:0.35 2:0.116667 3:0.113995 
1 1:0.4 2:0.148148 3:0.0447478 
1 1:0.1 2:0.0416667 3:0.0539163 
1 1:0.3 2:0.333333 3:0.087436 
1 1:0.1 2:0.0333333 3:0.0708729 
1 1:0.35 2:0.12963 3:0.0468603 
1 1:0.35 2:0.166667 3:0.113838 
1 1:0.7 2:0.291667 3:0.0396595 
1 1:0.45 2:0.1875 3:0.0384444 
1 1:0.2 2:0.111111 3:0.0666505 
1 1:0.2 2:0.0952381 3:0.116946 
1 1:0.6 2:0.5 3:0.0619623 
1 1:0.05 2:0.0833333 3:0.0755743 
1 1:0.05 2:0.0555556 3:0.0692103 
1 1:0.15 2:0.1 3:0.0641549 
1 1:0.5 2:0.151515 3:0.05777 
1 1:0.4 2:0.148148 3:0.0636226 
1 1:0.05 2:0.0185185 3:0.0571342 
1 1:0.55 2:0.366667 3:0.0610689 
1 1:0.35 2:0.233333 3:0.0516457 
1 1:0.6 2:0.222222 3:0.0431521 
1 1:0.05 2:0.0416667 3:0.0355879 
1 1:0.65 2:0.166667 3:0.0972007 
1 1:0.3 2:0.166667 3:0.140638 
1 1:0.05 2:0.0238095 3:0.0744784 
1 1:0.55 2:0.458333 3:0.0872504 
1 1:0.25 2:0.0833333 3:0.137773 
1 1:0.05 2:0.0208333 3:0.0650814 
1 1:0.3 2:0.2 3:0.053463 
1 1:0.15 2:0.25 3:0.079284 
1 1:0.05 2:0.0416667 3:0.0742591 
1 1:0.25 2:0.166667 3:0.0857218 
1 1:0.3 2:0.2 3:0.108935 
1 1:0.2 2:0.0444444 3:0.129238 
1 1:0.5 2:0.151515 3:0.0431016 
1 1:0.15 2:0.0833333 3:0.0549558 
1 1:0.3 2:0.1 3:0.052156 
1 1:0.2 2:0.166667 3:0.104213 
1 1:0.15 2:0.1 3:0.0869402 
1 1:0.25 2:0.0925926 3:0.069395 
1 1:0.2 2:0.0952381 3:0.115903 
1 1:0.65 2:0.270833 3:0.0769904 
1 1:0.35 2:0.233333 3:0.0659945 
1 1:0.3 2:0.25 3:0.0579426 
1 1:0.35 2:0.233333 3:0.0449669 
1 1:0.3 2:0.166667 3:0.0982338 
1 1:0.25 2:0.0757576 3:0.0990044 
1 1:0.6 2:0.142857 3:0.0624078 
1 1:0.3 2:0.125 3:0.064719 
1 1:0.15 2:0.0714286 3:0.0927681 
1 1:0.3 2:0.142857 3:0.0543928 
1 1:0.15 2:0.125 3:0.0658545 
1 1:0.2 2:0.0606061 3:0.106691 
1 1:0.5 2:0.111111 3:0.0948835 
1 1:0.45 2:0.15 3:0.0500698 
1 1:0.3 2:0.1 3:0.0977868 
1 1:0.1 2:0.0416667 3:0.0942078 
1 1:0.2 2:0.166667 3:0.0543828 
1 1:0.2 2:0.0952381 3:0.0571855 
1 1:0.75 2:0.625 3:0.0750411 
1 1:0.25 2:0.0694444 3:0.0660266 
1 3:0.045082 
1 1:0.4 2:0.190476 3:0.0821585 
1 1:0.25 2:0.104167 3:0.0552253 
1 1:0.4 2:0.102564 3:0.0824381 
1 1:0.15 2:0.0833333 3:0.0535481 
1 1:0.5 2:0.833333 3:0.0736841 
1 1:0.3 2:0.2 3:0.0688879 
1 1:0.05 2:0.0208333 3:0.0649038 
1 1:0.4 2:0.333333 3:0.0661551 
1 1:0.2 2:0.166667 3:0.052287 
1 1:0.3 2:0.142857 3:0.0608898 
1 1:0.6 2:0.666667 3:0.0687446 
1 1:0.15 2:0.0555556 3:0.0811471 
1 1:0.6 2:0.166667 3:0.0566553 
1 1:0.35 2:0.233333 3:0.0850753 
1 1:0.15 2:0.0833333 3:0.0456453 
1 1:0.5 2:0.185185 3:0.0489527 
1 1:0.25 2:0.104167 3:0.0680929 
1 1:0.2 2:0.111111 3:0.0501476 
1 1:0.1 2:0.0555556 3:0.0634455 
1 1:0.25 2:0.119048 3:0.14356 
1 1:0.15 2:0.05 3:0.0478589 
1 1:0.2 2:0.0740741 3:0.0625283 
1 1:0.2 2:0.133333 3:0.0670149 
1 1:0.5 2:0.238095 3:0.147872 
1 1:0.3 2:0.0909091 3:0.0785196 
1 1:0.2 2:0.0666667 3:0.0531991 
1 1:0.75 2:0.277778 3:0.0564966 
1 1:0.1 2:0.025641 3:0.0655891 
1 1:0.55 2:0.166667 3:0.0612938 
1 1:0.25 2:0.0833333 3:0.0844219 
1 1:0.25 2:0.277778 3:0.0713303 
1 3:0.0419953 
1 1:0.55 2:0.366667 3:0.0651244 
1 1:0.4 2:0.166667 3:0.058858 
1 1:0.2 2:0.0555556 3:0.0555442 
1 1:0.2 2:0.0952381 3:0.063276 
1 1:0.25 2:0.277778 3:0.0700799 
1 1:0.45 2:0.3 3:0.0476655 
1 1:0.45 2:0.5 3:0.0763586 
1 1:0.3 2:0.0714286 3:0.0592593 
1 1:0.1 2:0.0555556 3:0.0682669 
1 1:0.3 2:0.333333 3:0.110733 
1 1:0.3 2:0.2 3:0.16013 
1 1:0.35 2:0.291667 3:0.0844525 
1 1:0.2 2:0.111111 3:0.0759349 
1 1:0.35 2:0.145833 3:0.132601 
1 1:0.1 2:0.047619 3:0.0542561 
1 1:0.3 2:0.2 3:0.0968734 
1 1:0.25 2:0.104167 3:0.0676909 
1 1:0.15 2:0.0555556 3:0.125051 
1 1:0.2 2:0.111111 3:0.0485025 
1 1:0.1 2:0.0416667 3:0.0874274 
1 1:0.3 2:0.333333 3:0.0611417 
1 1:0.35 2:0.166667 3:0.0927379 
1 1:0.4 2:0.166667 3:0.110754 
1 1:0.3 2:0.142857 3:0.101941 
1 1:0.35 2:0.194444 3:0.0657993 
1 3:0.0378008 
1 1:0.5 2:0.416667 3:0.0639806 
1 1:0.25 2:0.119048 3:0.0695142 
1 1:0.3 2:0.0909091 3:0.0603725 
1 3:0.0361747 
1 1:0.45 2:0.214286 3:0.0944734 
1 1:0.2 2:0.0952381 3:0.0573662 
1 1:0.15 2:0.0357143 3:0.0668813 
1 1:0.5 2:0.119048 3:0.114395 
1 1:0.2 2:0.166667 3:0.0582754 
1 1:0.7 2:0.212121 3:0.0688487 
1 1:0.4 2:0.102564 3:0.0456902 
1 1:0.05 2:0.0238095 3:0.0606976 
1 1:0.35 2:0.583333 3:0.0759457 
1 1:0.1 2:0.037037 3:0.0812941 
1 1:0.5 2:0.208333 3:0.0434802 
1 1:0.25 2:0.0595238 3:0.0599789 
1 1:0.2 2:0.133333 3:0.0825985 
1 1:0.3 2:0.166667 3:0.0628309 
1 1:0.2 2:0.133333 3:0.0803623 
1 1:0.3 2:0.166667 3:0.0443032 
1 3:0.0389732 
1 1:0.15 2:0.1 3:0.0700782 
1 1:0.1 2:0.0555556 3:0.0730014 
1 1:0.35 2:0.291667 3:0.142093 
1 1:0.5 2:0.277778 3:0.0925928 
1 1:0.35 2:0.388889 3:0.0883981 
1 1:0.25 2:0.0694444 3:0.0570358 
1 1:0.2 2:0.166667 3:0.0994991 
1 1:0.35 2:0.388889 3:0.0610075 
1 1:0.3 2:0.166667 3:0.0738259 
1 1:0.2 2:0.0952381 3:0.0565689 
1 1:0.25 2:0.119048 3:0.0742673 
1 1:0.2 2:0.0833333 3:0.0589382 
1 1:0.3 2:0.166667 3:0.0653247 
1 1:0.1 2:0.037037 3:0.0853138 
1 1:0.15 2:0.125 3:0.0703117 
1 1:0.55 2:0.458333 3:0.0529845 
1 1:0.25 2:0.0833333 3:0.0558495 
1 1:0.25 2:0.138889 3:0.063107 
1 1:0.1 2:0.037037 3:0.078849 
1 1:0.2 2:0.133333 3:0.0794491 
1 1:0.15 2:0.0555556 3:0.0914246 
1 3:0.0417193 
1 1:0.15 2:0.0833333 3:0.0784132 
1 1:0.45 2:0.15 3:0.068556 
1 1:0.15 2:0.0833333 3:0.0631426 
1 1:0.35 2:0.194444 3:0.0595274 
1 1:0.3 2:0.142857 3:0.0851926 
1 1:0.5 2:0.416667 3:0.0396097 
1 1:0.05 2:0.0185185 3:0.0543534 
1 1:0.55 2:0.107843 3:0.108046 
1 1:0.25 2:0.166667 3:0.0712991 
1 1:0.1 2:0.0666667 3:0.0897095 
1 1:0.7 2:0.583333 3:0.0801897 
1 1:0.4 2:0.444444 3:0.101039 
1 1:0.25 2:0.0925926 3:0.0957103 
1 1:0.2 2:0.0833333 3:0.0842544 
1 1:0.1 2:0.0333333 3:0.0898695 
1 1:0.15 2:0.125 3:0.0802236 
1 1:0.1 2:0.030303 3:0.0611533 
1 1:0.35 2:0.12963 3:0.0529302 
1 1:0.1 2:0.047619 3:0.0771821 
1 1:0.45 2:0.136364 3:0.0722657 
1 1:0.1 2:0.0555556 3:0.0548828 
1 1:0.45 2:0.3 3:0.177657 
1 1:0.3 2:0.333333 3:0.0605959 
1 1:0.25 2:0.0833333 3:0.0590933 
1 1:0.25 2:0.208333 3:0.0506632 
1 1:0.3 2:0.2 3:0.0505583 
1 1:0.1 2:0.047619 3:0.0691833 
1 1:0.45 2:0.0833333 3:0.0686722 
1 1:0.25 2:0.104167 3:0.0820047 
1 1:0.2 2:0.0512821 3:0.0625092 
1 1:0.45 2:0.1875 3:0.0676891 
1 1:0.35 2:0.166667 3:0.0866718 
1 1:0.3 2:0.125 3:0.0837569 
1 1:0.35 2:0.12963 3:0.100018 
1 1:0.25 2:0.119048 3:0.0636773 
1 1:0.3 2:0.2 3:0.120304 
1 1:0.15 2:0.0833333 3:0.0588557 
1 1:0.4 2:0.444444 3:0.0687482 
1 1:0.25 2:0.104167 3:0.0635342 
1 1:0.45 2:0.5 3:0.0769285 
1 1:0.55 2:0.366667 3:0.06127 
1 1:0.15 2:0.0555556 3:0.113882 
1 1:0.55 2:0.305556 3:0.0447947 
1 1:0.35 2:0.388889 3:0.044996 
1 1:0.25 2:0.138889 3:0.0588715 
1 1:0.25 2:0.119048 3:0.0537586 
1 1:0.15 2:0.166667 3:0.145177 
1 1:0.2 2:0.0833333 3:0.0799268 
1 1:0.4 2:0.121212 3:0.097611 
1 1:0.3 2:0.125 3:0.0613721 
1 1:0.35 2:0.0897436 3:0.0627933 
1 1:0.25 2:0.277778 3:0.0585134 
1 1:0.35 2:0.388889 3:0.0704673 
1 1:0.1 2:0.037037 3:0.0735593 
1 1:0.5 2:0.238095 3:0.191385 
1 1:0.1 2:0.047619 3:0.0609235 
1 1:0.35 2:0.145833 3:0.033649 
1 1:0.4 2:0.148148 3:0.0822775 
1 1:0.25 2:0.166667 3:0.0654906 
1 1:0.15 2:0.1 3:0.0614591 
1 1:0.4 2:0.111111 3:0.0474896 
1 1:0.35 2:0.145833 3:0.0621481 
1 1:0.1 2:0.0666667 3:0.105512 
1 1:0.1 2:0.0416667 3:0.0671841 
1 1:0.3 2:0.2 3:0.0662036 
1 1:0.15 2:0.0714286 3:0.132657 
1 1:0.5 2:0.555556 3:0.0585684 
1 1:0.3 2:0.0625 3:0.0484975 
1 1:0.5 2:0.119048 3:0.0655376 
1 1:0.35 2:0.12963 3:0.0642035 
1 1:0.15 2:0.125 3:0.0750479 
1 1:0.15 2:0.0454545 3:0.0599186 
1 1:0.4 2:0.148148 3:0.0906226 
1 1:0.4 2:0.444444 3:0.0546016 
1 1:0.15 2:0.0714286 3:0.0746881 
1 1:0.4 2:0.190476 3:0.0458524 
1 1:0.15 2:0.0833333 3:0.12039 
1 1:0.5 2:0.555556 3:0.0694177 
1 1:0.1 2:0.037037 3:0.0516177 
1 1:0.2 2:0.0740741 3:0.0671357 
1 1:0.05 2:0.0238095 3:0.0519694 
1 1:0.35 2:0.12963 3:0.0466645 
1 1:0.45 2:0.5 3:0.126311 
1 1:0.05 2:0.0333333 3:0.0676133 
1 1:0.3 2:0.2 3:0.0585316 
1 1:0.05 2:0.0277778 3:0.0671876 
1 1:0.4 2:0.121212 3:0.0809591 
1 1:0.65 2:0.309524 3:0.27767 
1 1:0.25 2:0.0694444 3:0.0771482 
1 1:0.25 2:0.0520833 3:0.0460165 
1 1:0.25 2:0.119048 3:0.0872442 
1 3:0.0404022 
1 1:0.25 2:0.0925926 3:0.115502 
1 1:0.6 2:0.25 3:0.0669852 
1 1:0.25 2:0.104167 3:0.0767078 
1 1:0.2 2:0.0952381 3:0.102437 
1 1:0.5 2:0.416667 3:0.066713 
1 1:0.25 2:0.104167 3:0.0517091 
1 1:0.3 2:0.111111 3:0.0650093 
1 1:0.2 2:0.0952381 3:0.070349 
1 1:0.05 2:0.0333333 3:0.0400386 
1 1:0.25 2:0.119048 3:0.0419404 
1 3:0.040735 
1 1:0.55 2:0.261905 3:0.0968393 
1 1:0.35 2:0.388889 3:0.075359 
1 1:0.1 2:0.047619 3:0.0570157 
1 1:0.4 2:0.190476 3:0.0714156 
1 1:0.55 2:0.458333 3:0.0877583 
1 1:0.35 2:0.106061 3:0.0478929 
1 1:0.2 2:0.0952381 3:0.0815311 
1 1:0.25 2:0.208333 3:0.0739414 
1 1:0.35 2:0.12963 3:0.0566421 
1 1:0.4 2:0.111111 3:0.0622958 
1 1:0.3 2:0.166667 3:0.0729966 
1 1:0.3 2:0.2 3:0.0972233 
1 1:0.35 2:0.106061 3:0.101681 
1 1:0.35 2:0.194444 3:0.0816985 
1 1:0.15 2:0.0625 3:0.105186 
1 1:0.35 2:0.194444 3:0.11719 
1 1:0.35 2:0.145833 3:0.0939339 
1 1:0.1 2:0.0833333 3:0.064986 
1 1:0.2 2:0.0666667 3:0.0824568 
1 1:0.25 2:0.119048 3:0.0575318 
1 1:0.35 2:0.233333 3:0.0573941 
1 1:0.6 2:0.285714 3:0.0562596 
1 1:0.2 2:0.166667 3:0.0767623 
1 1:0.55 2:0.261905 3:0.06665 
1 1:0.3 2:0.333333 3:0.0555615 
1 1:0.2 2:0.133333 3:0.0586736 
1 1:0.2 2:0.0740741 3:0.0573069 
1 1:0.3 2:0.2 3:0.081219 
1 1:0.45 2:0.3 3:0.147827 
1 1:0.1 2:0.111111 3:0.0813817 
1 1:0.35 2:0.12963 3:0.0872254 
1 1:0.35 2:0.583333 3:0.0546064 
1 1:0.5 2:0.416667 3:0.0675181 
1 1:0.2 2:0.0606061 3:0.052808 
1 1:0.35 2:0.194444 3:0.0836169 
1 1:0.5 2:0.208333 3:0.0576558 
1 1:0.15 2:0.0555556 3:0.0552156 
1 1:0.25 2:0.138889 3:0.139514 
1 1:0.1 2:0.0333333 3:0.0781571 
1 1:0.2 2:0.111111 3:0.060641 
1 1:0.15 2:0.0714286 3:0.058801 
1 1:0.35 2:0.166667 3:0.0922727 
1 1:0.45 2:0.3 3:0.0552957 
1 1:0.15 2:0.05 3:0.0720991 
1 1:0.1 2:0.0833333 3:0.0599782 
1 1:0.55 2:0.366667 3:0.078641 
1 1:0.15 2:0.1 3:0.0600453 
1 1:0.2 2:0.0952381 3:0.0679814 
1 1:0.25 2:0.0757576 3:0.0711053 
1 1:0.3 2:0.125 3:0.0692642 
1 1:0.3 2:0.142857 3:0.0495667 
1 1:0.05 2:0.0238095 3:0.0636426 
1 3:0.0428482 
1 1:0.25 2:0.0833333 3:0.0614081 
1 1:0.2 2:0.0833333 3:0.0595736 
1 1:0.45 2:0.3 3:0.0554041 
1 1:0.25 2:0.138889 3:0.0934611 
1 1:0.15 2:0.1 3:0.0609495 
1 1:0.25 2:0.119048 3:0.0871483 
1 1:0.5 2:0.208333 3:0.0464079 
1 1:0.3 2:0.2 3:0.0696013 
1 1:0.85 2:0.314815 3:0.0736796 
1 1:0.3 2:0.111111 3:0.137597 
1 1:0.15 2:0.0714286 3:0.0890342 
1 1:0.35 2:0.116667 3:0.0632027 
1 1:0.3 2:0.142857 3:0.0683513 
1 3:0.0440614 
1 1:0.25 2:0.208333 3:0.0543977 
1 1:0.1 2:0.0416667 3:0.0885962 
1 1:0.1 2:0.111111 3:0.06514 
1 1:0.3 2:0.2 3:0.0562187 
1 1:0.4 2:0.444444 3:0.0439187 
1 1:0.2 2:0.0833333 3:0.0713572 
1 1:0.15 2:0.0625 3:0.0815446 
1 1:0.3 2:0.25 3:0.0642569 
1 1:0.35 2:0.194444 3:0.12331 
1 1:0.25 2:0.166667 3:0.0699311 
1 1:0.15 2:0.0714286 3:0.0551221 
1 1:0.1 2:0.037037 3:0.0958478 
1 1:0.35 2:0.0833333 3:0.124153 
1 1:0.35 2:0.291667 3:0.088907 
1 1:0.25 2:0.119048 3:0.0650843 
1 1:0.3 2:0.125 3:0.0631247 
1 1:0.2 2:0.0740741 3:0.055189 
1 1:0.5 2:0.208333 3:0.259026 
1 1:0.5 2:0.238095 3:0.104985 
1 1:0.35 2:0.291667 3:0.0577994 
1 1:0.2 2:0.222222 3:0.0871179 
1 1:0.1 2:0.0416667 3:0.0716732 
1 1:0.35 2:0.388889 3:0.130824 
1 1:0.35 2:0.0897436 3:0.0739359 
1 1:0.15 2:0.1 3:0.0484316 
1 1:0.4 2:0.111111 3:0.0617154 
1 1:0.25 2:0.0694444 3:0.0620524 
1 1:0.75 2:0.5 3:0.0767814 
1 1:0.15 2:0.166667 3:0.0764224 
1 1:0.6 2:0.2 3:0.0615076 
1 1:0.25 2:0.119048 3:0.0519325 
1 1:0.35 2:0.166667 3:0.0922776 
1 1:0.25 2:0.0757576 3:0.0718522 
1 1:0.35 2:0.166667 3:0.0586488 
1 1:0.35 2:0.116667 3:0.0832208 
1 1:0.25 2:0.0833333 3:0.101802 
1 1:0.25 2:0.138889 3:0.102266 
1 1:0.2 2:0.0833333 3:0.0628208 
1 1:0.5 2:0.333333 3:0.118207 
1 1:0.2 2:0.0833333 3:0.0980067 
1 1:0.3 2:0.142857 3:0.0756645 
1 1:0.2 2:0.166667 3:0.0595013 
1 1:0.25 2:0.119048 3:0.0570035 
1 1:0.3 2:0.142857 3:0.0768525 
1 1:0.15 2:0.0714286 3:0.054273 
1 1:0.45 2:0.214286 3:0.0451771 
1 1:0.6 2:0.666667 3:0.077343 
1 1:0.15 2:0.0833333 3:0.0880382 
1 1:0.55 2:0.203704 3:0.105827 
1 1:0.4 2:0.102564 3:0.0558916 
1 1:0.45 2:0.1875 3:0.0400202 
1 1:0.2 2:0.0833333 3:0.0499691 
1 1:0.5 2:0.333333 3:0.0611736 
1 1:0.2 2:0.222222 3:0.0600825 
1 1:0.3 2:0.25 3:0.0652562 
1 1:0.2 2:0.0833333 3:0.0657173 
1 1:0.2 2:0.133333 3:0.0694343 
1 3:0.0437277 
1 1:0.25 2:0.166667 3:0.114536 
1 1:0.35 2:0.116667 3:0.061431 
1 1:0.1 2:0.037037 3:0.0663393 
1 1:0.1 2:0.0555556 3:0.0702182 
1 1:0.1 2:0.030303 3:0.0539624 
1 1:0.35 2:0.116667 3:0.0504584 
1 1:0.5 2:0.128205 3:0.0479219 
1 1:0.1 2:0.0555556 3:0.0733547 
1 1:0.35 2:0.106061 3:0.166112 
1 1:0.35 2:0.233333 3:0.0543076 
1 1:0.15 2:0.1 3:0.0665429 
1 1:0.25 2:0.166667 3:0.059884 
1 1:0.15 2:0.166667 3:0.0400489 
1 1:0.25 2:0.0833333 3:0.0635235 
1 1:0.15 2:0.05 3:0.0547176 
1 1:0.4 2:0.148148 3:0.0770389 
1 1:0.15 2:0.0714286 3:0.0435088 
1 1:0.5 2:0.238095 3:0.0677294 
1 1:0.75 2:0.357143 3:0.0648973 
1 1:0.35 2:0.291667 3:0.0935992 
1 3:0.0444055 
1 1:0.3 2:0.2 3:0.0856788 
1 1:0.25 2:0.0641026 3:0.143976 
1 1:0.55 2:0.366667 3:0.143263 
1 1:0.1 2:0.0833333 3:0.0403638 
1 1:0.4 2:0.333333 3:0.116181 
1 1:0.4 2:0.222222 3:0.0539994 
1 1:0.1 2:0.0333333 3:0.091509 
1 1:0.5 2:0.416667 3:0.0555063 
1 1:0.15 2:0.166667 3:0.0615707 
1 1:0.55 2:0.366667 3:0.131994 
1 1:0.15 2:0.0833333 3:0.0967759 
1 1:0.05 2:0.0333333 3:0.0738137 
1 1:0.5 2:0.208333 3:0.0749135 
1 1:0.05 2:0.0138889 3:0.0753795 
1 1:0.4 2:0.190476 3:0.0756245 
1 1:0.15 2:0.0625 3:0.062676 
1 1:0.4 2:0.266667 3:0.215474 
1 1:0.15 2:0.0714286 3:0.110818 
1 1:0.2 2:0.111111 3:0.0448102 
1 1:0.15 2:0.0625 3:0.058454 
1 1:0.45 2:0.25 3:0.0603339 
1 1:0.1 2:0.111111 3:0.0537402 
1 1:0.6 2:0.285714 3:0.152045 
1 1:0.1 2:0.0833333 3:0.0826065 
1 1:0.15 2:0.1 3:0.100514 
1 1:0.3 2:0.333333 3:0.119027 
1 1:0.15 2:0.125 3:0.0538829 
1 1:0.15 2:0.0714286 3:0.05372 
1 1:0.15 2:0.0714286 3:0.0499764 
1 1:0.3 2:0.25 3:0.123064 
1 1:0.5 2:0.416667 3:0.0560414 
1 1:0.1 2:0.0555556 3:0.0488244 
1 1:0.4 2:0.111111 3:0.0659654 
1 1:0.2 2:0.0555556 3:0.0606413 
1 1:0.05 2:0.0416667 3:0.0544676 
1 1:0.45 2:0.375 3:0.0610174 
1 3:0.0405319 
1 1:0.05 2:0.0333333 3:0.0686981 
1 1:0.15 2:0.0625 3:0.0725668 
1 1:0.45 2:0.115385 3:0.0391883 
1 1:0.05 2:0.0333333 3:0.0138597 
1 1:0.45 2:0.5 3:0.103647 
1 1:0.5 2:0.238095 3:0.0635909 
1 1:0.2 2:0.111111 3:0.165482 
1 1:0.15 2:0.125 3:0.0549316 
1 1:0.15 2:0.0555556 3:0.0496411 
1 1:0.2 2:0.0606061 3:0.0700616 
1 1:0.05 2:0.0208333 3:0.0537837 
1 1:0.15 2:0.0454545 3:0.0736725 
1 1:0.3 2:0.0909091 3:0.0486602 
1 1:0.7 2:0.212121 3:0.0608905 
1 1:0.1 2:0.0416667 3:0.0639109 
1 1:0.35 2:0.194444 3:0.0789986 
1 1:0.15 2:0.0454545 3:0.0696396 
1 1:0.05 2:0.0277778 3:0.0675908 
1 1:0.35 2:0.145833 3:0.059721 
1 1:0.1 2:0.047619 3:0.0515901 
1 1:0.55 2:0.122222 3:0.149654 
1 3:0.0337537 
1 1:0.3 2:0.166667 3:0.0612947 
1 1:0.3 2:0.2 3:0.0722763 
1 1:0.5 2:0.238095 3:0.0727691 
1 1:0.3 2:0.166667 3:0.108543 
1 1:0.1 2:0.111111 3:0.0690578 
1 1:0.1 2:0.037037 3:0.061168 
1 1:0.45 2:0.166667 3:0.0884441 
1 1:0.5 2:0.277778 3:0.0387825 
1 1:0.15 2:0.0833333 3:0.0520308 
1 1:0.4 2:0.222222 3:0.0857442 
1 1:0.25 2:0.0833333 3:0.0589163 
1 1:0.2 2:0.222222 3:0.0833007 
1 1:0.2 2:0.111111 3:0.0407629 
1 1:0.15 2:0.0833333 3:0.138149 
1 1:0.4 2:0.190476 3:0.0664901 
1 1:0.25 2:0.119048 3:0.0509815 
1 1:0.15 2:0.0625 3:0.0871537 
1 1:0.5 2:0.119048 3:0.108018 
1 1:0.25 2:0.138889 3:0.125434 
1 1:0.05 2:0.0555556 3:0.0728399 
1 1:0.1 2:0.166667 3:0.079621 
1 1:0.15 2:0.166667 3:0.0735724 
1 1:0.45 2:0.5 3:0.0938855 
1 1:0.45 2:0.136364 3:0.0566609 
1 1:0.2 2:0.0952381 
1 1:0.15 2:0.0416667 3:0.0867446 
1 1:0.25 2:0.104167 3:0.0586368 
1 1:0.45 2:0.166667 3:0.0388846 
1 1:0.2 2:0.222222 3:0.123722 
1 1:0.15 2:0.125 3:0.0627095 
1 1:0.15 2:0.0714286 3:0.0697786 
1 1:0.25 2:0.208333 3:0.0908333 
1 1:0.1 2:0.0833333 3:0.0549292 
1 1:0.25 2:0.166667 3:0.152798 
1 1:0.3 2:0.0833333 3:0.0537557 
1 1:0.05 2:0.0333333 3:0.0753881 
1 1:0.35 2:0.116667 3:0.105477 
1 1:0.1 2:0.025641 3:0.0529123 
1 1:0.35 2:0.194444 3:0.0721721 
1 1:0.05 2:0.0277778 3:0.0547995 
1 1:0.25 2:0.119048 3:0.0577521 
1 1:0.25 2:0.0833333 3:0.13248 
1 1:0.05 2:0.0416667 3:0.0636893 
1 1:0.3 2:0.25 3:0.0969355 
1 1:0.05 2:0.0185185 3:0.0678852 
1 1:0.2 2:0.0555556 3:0.0597616 
1 1:0.25 2:0.104167 3:0.0713963 
1 1:0.35 2:0.194444 3:0.0695949 
1 1:0.3 2:0.333333 3:0.0571554 
1 1:0.3 2:0.25 3:0.0524668 
1 1:0.05 2:0.0185185 3:0.074219 
1 1:0.25 2:0.166667 3:0.0696333 
1 1:0.4 2:0.121212 3:0.045611 
1 1:0.5 2:0.416667 3:0.0686363 
1 1:0.35 2:0.145833 3:0.0475705 
1 1:0.25 2:0.277778 3:0.0743024 
1 1:0.35 2:0.291667 3:0.193339 
1 1:0.5 2:0.238095 3:0.133762 
1 1:0.1 2:0.047619 3:0.0530447 
1 1:0.45 2:0.214286 3:0.0586394 
1 1:0.25 2:0.119048 3:0.0824709 
1 1:0.5 2:0.333333 3:0.0578374 
1 1:0.45 2:0.115385 3:0.0732524 
1 1:0.1 2:0.047619 3:0.0501174 
1 1:0.25 2:0.0925926 3:0.059574 
1 1:0.1 2:0.0277778 3:0.0456006 
1 1:0.35 2:0.388889 3:0.0907259 
1 1:0.5 2:0.185185 3:0.0636328 
1 1:0.2 2:0.0666667 3:0.048369 
1 1:0.6 2:0.5 3:0.0645949 
1 1:0.15 2:0.0833333 3:0.0581155 
1 1:0.05 2:0.0555556 3:0.0526719 
1 1:0.1 2:0.0555556 3:0.0572165 
1 1:0.5 2:0.333333 3:0.100341 
1 1:0.25 2:0.208333 3:0.181662 
1 1:0.2 2:0.111111 3:0.0736101 
1 1:0.4 2:0.190476 3:0.0671357 
1 1:0.35 2:0.116667 3:0.0693738 
1 1:0.45 2:0.125 3:0.0468898 
1 1:0.15 2:0.0357143 3:0.0572996 
1 1:0.15 2:0.0833333 3:0.0322112 
1 1:0.15 2:0.125 3:0.0509576 
1 1:0.25 2:0.0757576 3:0.0567063 
1 1:0.25 2:0.166667 3:0.0798728 
1 1:0.7 2:0.212121 3:0.0736199 
1 1:0.35 2:0.166667 3:0.0777858 
1 1:0.05 2:0.0277778 3:0.0542323 
1 1:0.4 2:0.121212 3:0.0545215 
1 1:0.25 2:0.277778 3:0.0408688 
1 1:0.05 2:0.0208333 3:0.0581407 
1 1:0.3 2:0.25 3:0.154011 
1 1:0.3 2:0.166667 3:0.0846668 
1 1:0.3 2:0.5 3:0.0988632 
1 1:0.55 2:0.152778 3:0.0928462 
1 1:0.2 2:0.0952381 3:0.112851 
1 1:0.3 2:0.333333 3:0.0621577 
1 1:0.3 2:0.2 3:0.0647213 
1 1:0.3 2:0.333333 3:0.124321 
1 1:0.35 2:0.166667 3:0.0589237 
1 1:0.45 2:0.125 3:0.0565461 
1 1:0.05 2:0.0166667 3:0.066934 
1 1:0.15 2:0.0714286 3:0.0631904 
1 1:0.25 2:0.119048 3:0.0779378 
1 1:0.05 2:0.0151515 3:0.068635 
1 1:0.3 2:0.111111 3:0.0597603 
1 1:0.4 2:0.222222 3:0.0574508 
1 1:0.45 2:0.15 3:0.0705731 
1 1:0.4 2:0.148148 3:0.0771883 
1 1:0.35 2:0.166667 3:0.0638728 
1 1:0.3 2:0.166667 3:0.0932147 
1 1:0.2 2:0.166667 3:0.0898931 
1 1:0.6 2:0.5 3:0.110522 
1 1:0.05 2:0.0208333 3:0.0724648 
1 1:0.1 2:0.0555556 3:0.0494389 
1 1:0.35 2:0.12963 3:0.0743984 
1 1:0.4 2:0.148148 3:0.0856841 
1 1:0.2 2:0.111111 3:0.0683904 
1 1:0.1 2:0.030303 3:0.0800523 
1 1:0.5 2:0.128205 3:0.0794801 
1 1:0.4 2:0.166667 3:0.0811812 
1 1:0.1 2:0.0666667 3:0.051151 
1 1:0.2 2:0.0666667 3:0.0523092 
1 1:0.2 2:0.0833333 3:0.0618735 
1 1:0.35 2:0.166667 3:0.0614922 
1 1:0.65 2:0.216667 3:0.051029 
1 1:0.35 2:0.12963 3:0.0758192 
1 1:0.4 2:0.190476 3:0.0470946 
1 1:0.3 2:0.1 3:0.0806743 
1 1:0.65 2:0.270833 3:0.0907972 
1 1:0.15 2:0.05 3:0.0607142 
1 1:0.5 2:0.208333 3:0.0593433 
1 1:0.2 2:0.133333 3:0.0730608 
1 3:0.0436233 
1 1:0.25 2:0.0757576 3:0.101487 
1 1:0.15 2:0.1 3:0.0363531 
1 1:0.15 2:0.0454545 3:0.0768165 
1 1:0.15 2:0.125 3:0.101136 
1 1:0.45 2:0.375 3:0.0701741 
1 1:0.5 2:0.208333 3:0.0780029 
1 1:0.5 2:0.208333 3:0.0606872 
1 1:0.25 2:0.0694444 3:0.135024 
1 1:0.35 2:0.116667 3:0.0494306 
1 1:0.45 2:0.375 3:0.086663 
1 1:0.15 2:0.05 3:0.0620047 
1 1:0.35 2:0.12963 3:0.116637 
1 1:0.3 2:0.1 3:0.0554934 
1 1:0.4 2:0.148148 3:0.0500159 
1 1:0.35 2:0.194444 3:0.0663833 
1 1:0.4 2:0.121212 3:0.0831856 
1 1:0.4 2:0.148148 3:0.0778405 
1 1:0.1 2:0.037037 3:0.0519373 
1 1:0.3 2:0.25 3:0.0665147 
1 1:0.65 2:0.270833 3:0.0488251 
1 1:0.85 2:0.472222 3:0.0342515 
1 1:0.25 2:0.0833333 3:0.0652196 
1 1:0.45 2:0.125 3:0.0791185 
1 1:0.25 2:0.104167 3:0.0709853 
1 1:0.3 2:0.25 3:0.080344 
1 1:0.1 2:0.0555556 3:0.0328731 
1 1:0.5 2:0.166667 3:0.173956 
1 1:0.2 2:0.0606061 3:0.0583667 
1 1:0.2 2:0.0666667 3:0.0537135 
1 1:0.2 2:0.0606061 3:0.0967759 
1 1:0.3 2:0.166667 3:0.0769983 
1 1:0.7 2:0.212121 3:0.054936 
1 1:0.5 2:0.208333 3:0.0544462 
1 1:0.25 2:0.0925926 3:0.0753707 
1 1:0.15 2:0.1 3:0.0768021 
1 1:0.3 2:0.333333 3:0.0676494 
1 1:0.4 2:0.333333 3:0.0889504 
1 1:0.25 2:0.0925926 3:0.0751079 
1 1:0.2 2:0.0952381 3:0.0515735 
1 1:0.05 2:0.0151515 3:0.017626 
1 1:0.2 2:0.0512821 3:0.0731085 
1 1:0.4 2:0.222222 3:0.0630388 
1 1:0.2 2:0.0952381 3:0.0496025 
1 1:0.35 2:0.388889 3:0.106937 
1 1:0.35 2:0.233333 3:0.0590752 
1 1:0.25 2:0.0925926 3:0.093879 
1 1:0.5 2:0.111111 3:0.072103 
1 1:0.25 2:0.0925926 3:0.0508925 
1 1:0.55 2:0.130952 3:0.0722901 
1 1:0.1 2:0.047619 3:0.0448135 
1 1:0.25 2:0.138889 3:0.0988447 
1 1:0.15 2:0.0625 3:0.0657782 
1 1:0.25 2:0.119048 3:0.137916 
1 1:0.3 2:0.1 3:0.0568365 
1 1:0.2 2:0.166667 3:0.067607 
1 1:0.35 2:0.166667 3:0.0525939 
1 1:0.2 2:0.0952381 3:0.0955623 
1 1:0.25 2:0.0925926 3:0.0835686 
1 1:0.35 2:0.106061 3:0.160733 
1 1:0.3 2:0.125 3:0.0782617 
1 1:0.4 2:0.266667 3:0.0472097 
1 1:0.1 2:0.037037 3:0.0721593 
1 1:0.35 2:0.194444 3:0.0623401 
1 1:0.2 2:0.0952381 3:0.0590976 
1 1:0.4 2:0.222222 3:0.0694572 
1 1:0.1 2:0.0555556 3:0.0607268 
1 1:0.35 2:0.233333 3:0.0847415 
1 1:0.3 2:0.1 3:0.100896 
1 1:0.25 2:0.104167 3:0.063944 
1 1:0.15 2:0.166667 3:0.0539188 
1 1:0.1 2:0.0555556 3:0.0655728 
1 1:0.2 2:0.0606061 3:0.0754369 
1 1:0.3 2:0.125 3:0.0906389 
1 1:0.25 2:0.138889 3:0.0798986 
1 1:0.35 2:0.291667 3:0.0862639 
1 1:0.3 2:0.0909091 3:0.0733312 
1 1:0.4 2:0.222222 3:0.0937893 
1 1:0.2 2:0.133333 3:0.0808298 
1 1:0.35 2:0.12963 3:0.0616761 
1 1:0.2 2:0.0833333 3:0.0927083 
1 1:0.05 2:0.0185185 3:0.0717728 
1 1:0.5 2:0.208333 3:0.0670579 
1 1:0.3 2:0.0909091 3:0.0535344 
1 1:0.15 2:0.1 3:0.0626095 
1 1:0.3 2:0.142857 3:0.14385 
1 1:0.3 2:0.25 3:0.0912069 
1 1:0.4 2:0.121212 3:0.0708273 
1 1:0.35 2:0.166667 3:0.0762822 
1 1:0.4 2:0.166667 3:0.0616892 
1 1:0.2 2:0.166667 3:0.0576718 
1 1:0.4 2:0.266667 3:0.116669 
1 1:0.2 2:0.133333 3:0.0825454 
1 1:0.4 2:0.190476 3:0.0685489 
1 1:0.4 2:0.266667 3:0.0579475 
1 1:0.35 2:0.12963 3:0.0673805 
1 1:0.15 2:0.0454545 3:0.101127 
1 1:0.3 2:0.166667 3:0.0734735 
1 1:0.6 2:0.133333 3:0.0499719 
1 1:0.5 2:0.333333 3:0.0580707 
1 3:0.041483 
1 1:0.25 2:0.0833333 3:0.053059 
1 1:0.3 2:0.0769231 3:0.0589925 
1 1:0.15 2:0.1 3:0.0703744 
1 1:0.25 2:0.104167 3:0.0595594 
1 1:0.15 2:0.0555556 3:0.0597525 
1 1:0.35 2:0.388889 3:0.056575 
1 1:0.35 2:0.145833 3:0.0814312 
1 1:0.3 2:0.25 3:0.0535865 
1 1:0.35 2:0.291667 3:0.0421877 
1 1:0.65 2:0.180556 3:0.0483482 
1 3:0.0349438 
1 1:0.45 2:0.214286 3:0.101887 
1 1:0.6 2:0.25 3:0.0846162 
1 1:0.35 2:0.233333 3:0.0469723 
1 1:0.15 2:0.166667 3:0.0672618 
1 1:0.4 2:0.266667 3:0.0902763 
1 1:0.05 2:0.0277778 3:0.0405082 
1 1:0.15 2:0.125 3:0.0606699 
1 1:0.15 2:0.166667 3:0.0375572 
1 1:0.25 2:0.138889 3:0.0475796 
1 1:0.1 2:0.111111 3:0.0622682 
1 1:0.65 2:0.433333 3:0.0877562 
1 1:0.35 2:0.388889 3:0.0795758 
1 1:0.2 2:0.222222 3:0.136522 
1 1:0.15 2:0.166667 3:0.0605226 
1 1:0.25 2:0.119048 3:0.119295 
1 1:0.6 2:0.125 3:0.0912794 
1 1:0.25 2:0.104167 3:0.039552 
1 1:0.05 2:0.0238095 3:0.0468725 
1 1:0.35 2:0.166667 3:0.0807785 
1 1:0.1 2:0.0277778 3:0.05786 
1 1:0.3 2:0.1 3:0.0465238 
1 1:0.3 2:0.25 3:0.0930984 
1 1:0.45 2:0.25 3:0.0436742 
1 1:0.35 2:0.166667 3:0.045081 
1 3:0.0407716 
1 1:0.1 2:0.037037 3:0.0526571 
1 1:0.2 2:0.0740741 3:0.0697352 
1 1:0.1 2:0.037037 3:0.0662037 
1 1:0.05 2:0.0333333 3:0.0554297 
1 1:0.3 2:0.111111 3:0.125699 
1 1:0.15 2:0.0714286 3:0.107487 
1 1:0.6 2:0.25 3:0.149406 
1 1:0.2 2:0.0666667 3:0.0465744 
1 1:0.1 2:0.0555556 3:0.0524366 
1 1:0.3 2:0.25 3:0.0541434 
1 1:0.2 2:0.0833333 3:0.0597509 
1 1:0.1 2:0.0208333 3:0.0821688 
1 1:0.05 2:0.0277778 3:0.0691403 
1 1:0.25 2:0.208333 3:0.0453495 
1 1:0.15 2:0.0833333 3:0.0892647 
1 1:0.1 2:0.047619 3:0.0413247 
1 1:0.15 2:0.125 3:0.113728 
1 1:0.15 2:0.166667 3:0.0619424 
1 1:0.15 2:0.1 3:0.0600484 
1 1:0.3 2:0.333333 3:0.103076 
1 1:0.4 2:0.266667 3:0.0647567 
1 1:0.2 2:0.111111 3:0.0731811 
1 1:0.35 2:0.145833 3:0.0740126 
1 1:0.35 2:0.388889 3:0.0557093 
1 1:0.5 2:0.333333 3:0.0973348 
1 1:0.35 2:0.116667 3:0.191802 
1 1:0.3 2:0.166667 3:0.087274 
1 1:0.3 2:0.111111 3:0.0521471 
1 1:0.45 2:0.15 3:0.0636338 
1 1:0.05 2:0.0833333 3:0.0704626 
1 1:0.2 2:0.0833333 3:0.047517 
1 1:0.3 2:0.142857 3:0.0588734 
1 1:0.25 2:0.119048 3:0.0692531 
1 1:0.05 2:0.0277778 3:0.0708066 
1 1:0.4 2:0.166667 3:0.106349 
1 1:0.3 2:0.142857 3:0.0530149 
1 1:0.25 2:0.166667 3:0.0837807 
1 1:0.35 2:0.233333 3:0.227659 
1 1:0.2 2:0.133333 3:0.118933 
1 1:0.1 2:0.047619 3:0.059803 
1 1:0.5 2:0.166667 3:0.0834204 
1 1:0.25 2:0.0757576 3:0.112636 
1 1:0.1 2:0.0416667 3:0.0691427 
1 1:0.25 2:0.208333 3:0.0839593 
1 1:0.25 2:0.0833333 3:0.0859804 
1 1:0.2 2:0.166667 3:0.0712661 
1 1:0.1 2:0.0416667 3:0.0518597 
1 1:0.2 2:0.0666667 3:0.0709657 
1 1:0.1 2:0.037037 3:0.0557912 
1 1:0.4 2:0.190476 3:0.0711979 
1 1:0.2 2:0.0952381 3:0.0801355 
1 1:0.5 2:0.277778 3:0.0774239 
1 1:0.3 2:0.111111 3:0.0991694 
1 1:0.1 2:0.0555556 3:0.0642786 
1 1:0.15 2:0.0714286 3:0.0580441 
1 1:0.4 2:0.121212 3:0.0638319 
1 1:0.3 2:0.0833333 3:0.0556578 
1 1:0.55 2:0.611111 3:0.0804391 
1 1:0.3 2:0.333333 3:0.0972172 
1 1:0.45 2:0.375 3:0.0625481 
1 1:0.5 2:0.128205 3:0.0530922 
1 1:0.1 2:0.0333333 3:0.0785482 
1 1:0.4 2:0.148148 3:0.0441083 
1 1:0.35 2:0.233333 3:0.0589695 
1 1:0.2 2:0.0833333 3:0.076759 
1 1:0.4 2:0.222222 3:0.0481156 
1 1:0.4 2:0.0952381 3:0.0661428 
1 1:0.15 2:0.0454545 3:0.0664654 
1 1:0.05 2:0.0277778 3:0.0510714 
1 1:0.6 2:0.333333 3:0.147424 
1 1:0.3 2:0.142857 3:0.0591486 
1 1:0.3 2:0.166667 3:0.0754959 
1 1:0.15 2:0.125 3:0.0579091 
1 1:0.35 2:0.194444 3:0.0492577 
1 1:0.3 2:0.25 3:0.123266 
1 1:0.15 2:0.0384615 3:0.0993481 
1 1:0.6 2:0.2 3:0.0468431 
1 1:0.45 2:0.5 3:0.0542982 
1 1:0.45 2:0.25 3:0.0649749 
1 1:0.5 2:0.208333 3:0.0909257 
1 1:0.35 2:0.291667 3:0.0676088 
1 1:0.15 2:0.0833333 3:0.102027 
1 1:0.2 2:0.133333 3:0.134332 
1 1:0.7 2:0.179487 3:0.0578051 
1 1:0.3 2:0.2 3:0.0664123 
1 1:0.1 2:0.0833333 3:0.0766805 
1 1:0.15 2:0.0416667 3:0.056196 
1 1:0.4 2:0.166667 3:0.0692407 
1 1:0.35 2:0.194444 3:0.0497446 
1 1:0.35 2:0.0777778 3:0.054146 
1 1:0.3 2:0.1 3:0.0741932 
1 1:0.35 2:0.116667 3:0.0534966 
1 1:0.15 2:0.0625 3:0.0580917 
1 1:0.4 2:0.148148 3:0.0606611 
1 1:0.35 2:0.12963 3:0.0513476 
1 1:0.4 2:0.133333 3:0.0219556 
1 1:0.3 2:0.125 3:0.0485189 
1 1:0.25 2:0.138889 3:0.114115 
1 1:0.35 2:0.145833 3:0.0977021 
1 1:0.4 2:0.190476 3:0.084935 
1 1:0.25 2:0.119048 3:0.0581633 
1 1:0.25 2:0.0925926 3:0.0473192 
1 1:0.2 2:0.0833333 3:0.0771762 
1 1:0.15 2:0.166667 3:0.0844254 
1 1:0.45 2:0.15 3:0.0701538 
1 1:0.35 2:0.145833 3:0.0568752 
1 1:0.3 2:0.142857 3:0.106274 
1 1:0.25 2:0.138889 3:0.0407077 
1 1:0.25 2:0.208333 3:0.075413 
1 1:0.45 2:0.214286 3:0.0445289 
1 1:0.3 2:0.0769231 3:0.0763543 
1 1:0.2 2:0.0555556 3:0.144949 
1 1:0.3 2:0.2 3:0.0624076 
1 1:0.15 2:0.125 3:0.0595804 
1 1:0.35 2:0.233333 3:0.0603352 
1 1:0.05 2:0.00980392 3:0.0683271 
1 1:0.15 2:0.0555556 3:0.0566053 
1 1:0.5 2:0.416667 3:0.0754042 
1 1:0.25 2:0.138889 3:0.0733537 
1 1:0.3 2:0.142857 3:0.0803098 
1 1:0.35 2:0.12963 3:0.0586978 
1 1:0.1 2:0.0277778 3:0.0431112 
1 1:0.25 2:0.166667 3:0.072361 
1 1:0.15 2:0.0714286 3:0.0794684 
1 1:0.6 2:0.4 3:0.0877639 
1 1:0.3 2:0.25 3:0.0669791 
1 1:0.5 2:0.277778 3:0.093631 
1 1:0.5 2:0.333333 3:0.0554251 
1 1:0.5 2:0.208333 3:0.0759289 
1 1:0.3 2:0.166667 3:0.0642974 
1 1:0.4 2:0.133333 3:0.0821581 
1 1:0.3 2:0.25 3:0.238198 
1 1:0.1 2:0.0666667 3:0.0543843 
1 1:0.25 2:0.0416667 3:0.0956902 
1 1:0.1 2:0.047619 3:0.0785913 
1 1:0.25 2:0.119048 3:0.0515886 
1 1:0.5 2:0.208333 3:0.0688367 
1 1:0.1 2:0.0416667 3:0.0450257 
1 1:0.3 2:0.1 3:0.075544 
1 1:0.2 2:0.0740741 3:0.0760616 
1 1:0.2 2:0.0952381 3:0.0833239 
1 1:0.25 2:0.277778 3:0.0521393 
1 1:0.55 2:0.152778 3:0.0692113 
1 1:0.35 2:0.116667 3:0.0409047 
1 1:0.3 2:0.125 3:0.0416766 
1 1:0.4 2:0.222222 3:0.0478231 
1 1:0.45 2:0.3 3:0.0721464 
1 1:0.3 2:0.1 3:0.126037 
1 1:0.35 2:0.388889 3:0.0608755 
1 1:0.3 2:0.1 3:0.0676047 
1 1:0.15 2:0.125 3:0.0771261 
1 1:0.2 2:0.0952381 3:0.0613988 
1 1:0.1 2:0.0238095 3:0.0491722 
1 1:0.4 2:0.190476 3:0.0794349 
1 1:0.35 2:0.166667 3:0.12038 
1 1:0.3 2:0.125 3:0.184539 
1 1:0.15 2:0.125 3:0.0557419 
1 1:0.2 2:0.0666667 3:0.0234987 
1 1:0.45 2:0.136364 3:0.070552 
1 1:0.1 2:0.0833333 3:0.0643577 
1 1:0.35 2:0.166667 3:0.115843 
1 1:0.4 2:0.133333 3:0.0905449 
1 1:0.45 2:0.3 3:0.0800497 
1 1:0.15 2:0.0454545 3:0.133074 
1 1:0.05 2:0.0185185 3:0.0440002 
1 1:0.25 2:0.119048 3:0.0961233 
1 1:0.15 2:0.0714286 3:0.108118 
1 1:0.3 2:0.2 3:0.0622492 
1 1:0.4 2:0.444444 3:0.0441048 
1 1:0.3 2:0.0909091 3:0.130699 
1 1:0.3 2:0.166667 3:0.0851739 
1 1:0.1 2:0.0555556 3:0.104921 
1 1:0.1 2:0.0833333 3:0.100539 
1 1:0.15 2:0.05 3:0.0538237 
1 1:0.45 2:0.25 3:0.0343359 
1 1:0.15 2:0.1 3:0.0935967 
1 1:0.25 2:0.166667 3:0.0862735 
1 1:0.05 2:0.0208333 3:0.0553753 
1 1:0.35 2:0.145833 3:0.0767618 
1 1:0.2 2:0.0666667 3:0.0975587 
1 1:0.2 2:0.0952381 3:0.0697067 
1 1:0.05 2:0.0185185 3:0.0720729 
1 3:0.0453131 
1 1:0.1 2:0.0555556 3:0.0729054 
1 1:0.3 2:0.111111 3:0.0568378 
1 1:0.05 2:0.0138889 3:0.0574373 
1 1:0.5 2:0.138889 3:0.0632212 
1 1:0.15 2:0.0625 3:0.0862728 
1 3:0.0430861 
1 1:0.3 2:0.1 3:0.0616488 
1 1:0.35 2:0.0777778 3:0.0591699 
1 1:0.1 2:0.0666667 3:0.0655912 
1 1:0.25 2:0.208333 3:0.0589821 
1 1:0.35 2:0.388889 3:0.116745 
1 1:0.3 2:0.2 3:0.0785325 
1 1:0.3 2:0.166667 3:0.0738316 
1 1:0.25 2:0.0757576 3:0.0812111 
1 1:0.35 2:0.233333 3:0.0738824 
1 1:0.35 2:0.166667 3:0.0797332 
1 1:0.25 2:0.0925926 3:0.0624331 
1 1:0.3 2:0.142857 3:0.0832221 
1 1:0.7 2:0.259259 3:0.180069 
1 1:0.1 2:0.0277778 3:0.0761255 
1 1:0.25 2:0.0833333 3:0.106695 
1 1:0.3 2:0.111111 3:0.0486514 
1 1:0.3 2:0.2 3:0.0548738 
1 1:0.05 2:0.0166667 3:0.0576466 
1 1:0.6 2:0.2 3:0.155955 
1 1:0.35 2:0.291667 3:0.0740562 
1 1:0.5 2:0.238095 3:0.0791942 
1 1:0.3 2:0.0833333 3:0.0557279 
1 1:0.15 2:0.1 3:0.0853551 
1 1:0.45 2:0.3 3:0.0616801 
1 1:0.2 2:0.0833333 3:0.0835253 
1 1:0.45 2:0.375 3:0.0572753 
1 1:0.2 2:0.133333 3:0.0980418 
1 1:0.4 2:0.266667 3:0.0936838 
1 1:0.3 2:0.142857 3:0.224177 
1 1:0.25 2:0.138889 3:0.0422643 
1 1:0.3 2:0.166667 3:0.0511862 
1 1:0.1 2:0.025641 3:0.0456173 
1 1:0.1 2:0.047619 3:0.0496305 
1 1:0.3 2:0.142857 3:0.0567371 
1 1:0.4 2:0.166667 3:0.0961559 
1 1:0.7 2:0.388889 3:0.0407098 
1 1:0.25 2:0.0694444 3:0.102038 
1 1:0.05 2:0.0128205 3:0.0509104 
1 1:0.25 2:0.277778 3:0.116428 
1 1:0.25 2:0.138889 3:0.0422114 
1 1:0.35 2:0.233333 3:0.0972971 
1 1:0.1 2:0.047619 3:0.0664384 
1 1:0.2 2:0.111111 3:0.0556743 
1 1:0.25 2:0.166667 3:0.0693911 
1 1:0.25 2:0.138889 3:0.0933151 
1 1:0.2 2:0.133333 3:0.0939826 
1 1:0.55 2:0.458333 3:0.0501199 
1 1:0.55 2:0.229167 3:0.062382 
1 1:0.1 2:0.111111 3:0.0894767 
1 1:0.1 2:0.0666667 3:0.0547035 
1 1:0.35 2:0.145833 3:0.112896 
1 1:0.25 2:0.119048 3:0.0549765 
1 1:0.25 2:0.138889 3:0.064904 
1 1:0.25 2:0.138889 3:0.106483 
1 1:0.35 2:0.194444 3:0.109209 
1 1:0.45 2:0.1875 3:0.0471963 
1 1:0.2 2:0.166667 3:0.0847502 
1 1:0.3 2:0.2 3:0.0624381 
1 1:0.15 2:0.1 3:0.0689461 
1 1:0.25 2:0.0694444 3:0.051011 
1 1:0.2 2:0.166667 3:0.0498677 
1 1:0.15 2:0.05 3:0.0479391 
1 1:0.4 2:0.266667 3:0.047111 
1 1:0.2 2:0.047619 3:0.0545806 
1 1:0.1 2:0.047619 3:0.05862 
1 1:0.2 2:0.0555556 3:0.0983383 
1 1:0.3 2:0.0909091 3:0.0781943 
1 1:0.35 2:0.166667 3:0.0826461 
1 1:0.15 2:0.1 3:0.0421378 
1 1:0.4 2:0.111111 3:0.0502611 
1 1:0.1 2:0.0333333 3:0.0681756 
1 1:0.35 2:0.106061 3:0.0524501 
1 1:0.1 2:0.0333333 3:0.0524788 
1 1:0.35 2:0.166667 3:0.0643622 
1 1:0.25 2:0.104167 3:0.069557 
1 1:0.5 2:0.238095 3:0.0673088 
1 1:0.3 2:0.166667 3:0.0746225 
1 1:0.2 2:0.0555556 3:0.11527 
1 1:0.15 2:0.0833333 3:0.0580398 
1 1:0.1 2:0.0333333 3:0.0682527 
1 1:0.35 2:0.0972222 3:0.0571349 
1 1:0.2 2:0.0833333 3:0.0814189 
1 1:0.3 2:0.2 3:0.0717831 
1 1:0.45 2:0.214286 3:0.0725797 
1 1:0.4 2:0.133333 3:0.193463 
1 1:0.3 2:0.166667 3:0.0692313 
1 1:0.35 2:0.291667 3:0.107075 
1 1:0.2 2:0.0833333 3:0.051207 
1 1:0.35 2:0.233333 3:0.088915 
1 1:0.05 2:0.0333333 3:0.0562638 
1 1:0.2 2:0.0666667 3:0.0575631 
1 1:0.1 2:0.111111 3:0.0820187 
1 1:0.2 2:0.0740741 3:0.0564402 
1 1:0.1 2:0.025641 3:0.0720354 
1 1:0.2 2:0.166667 3:0.0637475 
1 1:0.7 2:0.388889 3:0.114339 
1 1:0.2 2:0.222222 3:0.140698 
1 1:0.05 2:0.0238095 3:0.0747351 
1 1:0.6 2:0.666667 3:0.0707812 
1 1:0.15 2:0.25 3:0.0588232 
1 3:0.0440609 
1 1:0.1 2:0.047619 3:0.0417547 
1 1:0.35 2:0.233333 3:0.0524022 
1 1:0.55 2:0.183333 3:0.057146 
1 1:0.6 2:0.666667 3:0.0434223 
1 1:0.2 2:0.0740741 3:0.0657814 
1 1:0.45 2:0.1875 3:0.090724 
1 1:0.2 2:0.0740741 3:0.103618 
1 1:0.25 2:0.119048 3:0.0514296 
1 1:0.2 2:0.133333 3:0.0902899 
1 1:0.6 2:0.4 3:0.131123 
1 3:0.0423701 
1 1:0.2 2:0.133333 3:0.0573526 
1 1:0.15 2:0.0625 3:0.0600142 
1 1:0.55 2:0.611111 3:0.237569 
1 1:0.2 2:0.0740741 3:0.113972 
1 1:0.25 2:0.0925926 3:0.0494582 
1 1:0.25 2:0.0694444 3:0.0857985 
1 1:0.3 2:0.2 3:0.0673696 
1 1:0.2 2:0.133333 3:0.0536363 
1 1:0.25 2:0.277778 3:0.0557538 
1 1:0.2 2:0.0555556 3:0.0640746 
1 1:0.6 2:0.333333 3:0.0718863 
1 1:0.45 2:0.5 3:0.0662964 
1 1:0.15 2:0.0714286 3:0.03839 
1 1:0.3 2:0.142857 3:0.0787781 
1 1:0.1 2:0.0666667 3:0.023959 
1 1:0.15 2:0.0555556 3:0.0559702 
1 1:0.45 2:0.25 3:0.0763374 
1 1:0.3 2:0.1 3:0.0733688 
1 1:0.05 2:0.0555556 3:0.0633536 
1 1:0.05 2:0.0166667 3:0.066741 
1 1:0.25 2:0.166667 3:0.0382515 
1 1:0.15 2:0.0625 3:0.0776086 
1 1:0.5 2:0.185185 3:0.0698309 
1 1:0.2 2:0.166667 3:0.0544897 
1 1:0.55 2:0.366667 3:0.0889995 
1 1:0.35 2:0.145833 3:0.0721589 
1 1:0.1 2:0.111111 3:0.0375337 
1 1:0.45 2:0.1875 3:0.0482383 
1 1:0.2 2:0.0606061 3:0.083106 
1 1:0.2 2:0.0833333 3:0.124348 
1 1:0.1 2:0.0416667 3:0.0720519 
1 1:0.25 2:0.277778 3:0.094131 
1 1:0.2 2:0.166667 3:0.0805865 
-1 1:0.35 2:0.166667 3:0.0312035 
-1 1:0.35 2:0.166667 3:0.0482725 
-1 1:0.5 2:0.333333 3:0.0953056 
-1 1:0.15 2:0.125 3:0.086811 
-1 1:0.45 2:0.25 3:0.0598604 
-1 1:0.35 2:0.166667 3:0.0854069 
-1 1:0.25 2:0.138889 3:0.051432 
-1 1:0.3 2:0.142857 3:0.0676094 
-1 1:0.3 2:0.1 3:0.0195953 
-1 1:0.15 2:0.1 3:0.0791696 
-1 1:0.25 2:0.0694444 3:0.0556688 
-1 1:0.4 2:0.266667 3:0.0371297 
-1 1:0.3 2:0.125 3:0.0506797 
-1 1:0.15 2:0.0555556 3:0.0380425 
-1 1:0.35 2:0.106061 3:0.0604028 
-1 1:0.2 2:0.0952381 3:0.0770524 
-1 1:0.25 2:0.166667 3:0.0509586 
-1 1:0.25 2:0.0833333 3:0.0579194 
-1 1:0.15 2:0.0454545 3:0.0886862 
-1 1:0.15 2:0.0833333 3:0.0830569 
-1 1:0.15 2:0.0714286 3:0.0874124 
-1 1:0.35 2:0.291667 3:0.056516 
-1 1:0.35 2:0.291667 3:0.0877137 
-1 1:0.45 2:0.1 3:0.0524406 
-1 1:0.4 2:0.166667 3:0.0547697 
-1 1:0.2 2:0.222222 3:0.0391961 
-1 1:0.2 2:0.111111 3:0.0489053 
-1 1:0.35 2:0.291667 3:0.0519757 
-1 1:0.25 2:0.166667 3:0.147943 
-1 1:0.35 2:0.291667 3:0.0528034 
-1 1:0.35 2:0.291667 3:0.0435198 
-1 1:0.35 2:0.233333 3:0.0799961 
-1 1:0.25 2:0.208333 3:0.0482662 
-1 1:0.25 2:0.119048 3:0.0468864 
-1 1:0.3 2:0.1 3:0.0546484 
-1 1:0.45 2:0.25 3:0.0626405 
-1 1:0.3 2:0.166667 3:0.0465671 
-1 1:0.3 2:0.111111 3:0.0800172 
-1 1:0.35 2:0.0972222 3:0.0456854 
-1 1:0.2 2:0.0740741 3:0.0626979 
-1 1:0.35 2:0.145833 3:0.0619638 
-1 1:0.35 2:0.106061 3:0.0712121 
-1 1:0.4 2:0.333333 3:0.0526926 
-1 1:0.15 2:0.0625 3:0.147669 
-1 1:0.15 2:0.1 3:0.0569236 
-1 1:0.25 2:0.277778 3:0.0363645 
-1 1:0.35 2:0.116667 3:0.0630068 
-1 1:0.35 2:0.194444 3:0.077894 
-1 1:0.25 2:0.208333 3:0.055872 
-1 1:0.35 2:0.388889 3:0.0514909 
-1 1:0.4 2:0.190476 3:0.0567961 
-1 1:0.25 2:0.138889 3:0.0478942 
-1 1:0.2 2:0.0512821 3:0.0704735 
-1 1:0.3 2:0.0588235 3:0.0919733 
-1 1:0.2 2:0.0555556 3:0.0915996 
-1 1:0.2 2:0.0740741 3:0.0486644 
-1 1:0.35 2:0.0897436 3:0.0390359 
-1 1:0.4 2:0.266667 3:0.0530975 
-1 1:0.25 2:0.277778 3:0.0512558 
-1 1:0.35 2:0.233333 3:0.0348596 
-1 1:0.15 2:0.0714286 3:0.0280586 
-1 1:0.2 2:0.111111 3:0.0647069 
-1 1:0.35 2:0.388889 3:0.0493073 
-1 1:0.4 2:0.121212 3:0.0510281 
-1 1:0.35 2:0.145833 3:0.0622377 
-1 1:0.35 2:0.291667 3:0.0838027 
-1 1:0.4 2:0.222222 3:0.0659923 
-1 1:0.35 2:0.166667 3:0.0535331 
-1 1:0.15 2:0.125 3:0.0746699 
-1 1:0.35 2:0.145833 3:0.0546069 
-1 1:0.25 2:0.208333 3:0.0342523 
-1 1:0.45 2:0.25 3:0.0541107 
-1 1:0.3 2:0.111111 3:0.0511883 
-1 1:0.3 2:0.111111 3:0.0492871 
-1 1:0.35 2:0.12963 3:0.117928 
-1 1:0.3 2:0.25 3:0.0741487 
-1 1:0.1 2:0.037037 3:0.0652794 
-1 1:0.25 2:0.138889 3:0.0340121 
-1 1:0.2 2:0.0952381 3:0.0571995 
-1 1:0.4 2:0.444444 3:0.100317 
-1 1:0.4 2:0.444444 3:0.048578 
-1 1:0.25 2:0.0694444 3:0.065948 
-1 1:0.4 2:0.266667 3:0.0591644 
-1 1:0.35 2:0.166667 3:0.0425821 
-1 1:0.2 2:0.0606061 3:0.0839554 
-1 1:0.4 2:0.190476 3:0.0746458 
-1 1:0.25 2:0.0925926 3:0.0580456 
-1 1:0.25 2:0.166667 3:0.0625013 
-1 1:0.25 2:0.104167 3:0.0500009 
-1 1:0.4 2:0.190476 3:0.0314425 
-1 1:0.35 2:0.145833 3:0.0196159 
-1 1:0.35 2:0.166667 3:0.0704312 
-1 1:0.4 2:0.148148 3:0.0532368 
-1 1:0.25 2:0.138889 3:0.0572218 
-1 1:0.15 2:0.0714286 3:0.0489609 
-1 1:0.35 2:0.233333 3:0.0479833 
-1 1:0.35 2:0.166667 3:0.0535198 
-1 1:0.3 2:0.142857 3:0.0561203 
-1 1:0.2 2:0.166667 3:0.0706658 
-1 1:0.25 2:0.0925926 3:0.0523512 
-1 1:0.35 2:0.116667 3:0.0564771 
-1 1:0.4 2:0.222222 3:0.0740226 
-1 1:0.2 2:0.166667 3:0.0480083 
-1 1:0.25 2:0.0925926 3:0.0468017 
-1 1:0.4 2:0.444444 3:0.0711561 
-1 1:0.4 2:0.111111 3:0.0947797 
-1 1:0.35 2:0.233333 3:0.0440263 
-1 1:0.15 2:0.125 3:0.054979 
-1 1:0.35 2:0.12963 3:0.0361846 
-1 1:0.3 2:0.166667 3:0.0581538 
-1 1:0.3 2:0.166667 3:0.0505633 
-1 1:0.25 2:0.166667 3:0.0772328 
-1 1:0.4 2:0.148148 3:0.0580089 
-1 1:0.45 2:0.3 3:0.0736939 
-1 1:0.15 2:0.0833333 3:0.0672689 
-1 1:0.45 2:0.166667 3:0.0469669 
-1 1:0.2 2:0.0740741 3:0.0653605 
-1 1:0.15 2:0.0833333 3:0.0458018 
-1 1:0.3 2:0.2 3:0.0322047 
-1 1:0.25 2:0.119048 3:0.0362418 
-1 1:0.35 2:0.145833 3:0.0453182 
-1 1:0.15 2:0.0714286 3:0.088088 
-1 1:0.2 2:0.111111 3:0.117394 
-1 1:0.25 2:0.0925926 3:0.0521769 
-1 1:0.4 2:0.190476 3:0.0610212 
-1 1:0.25 2:0.119048 3:0.0448559 
-1 1:0.2 2:0.0740741 3:0.105203 
-1 1:0.3 2:0.142857 3:0.0739526 
-1 1:0.25 2:0.104167 3:0.0349755 
-1 1:0.4 2:0.222222 3:0.0717841 
-1 1:0.4 2:0.190476 3:0.0637455 
-1 1:0.35 2:0.116667 3:0.0472075 
-1 1:0.35 2:0.0614035 3:0.0510428 
-1 1:0.35 2:0.0972222 3:0.062049 
-1 1:0.2 2:0.0666667 3:0.0384086 
-1 1:0.35 2:0.388889 3:0.0277085 
-1 1:0.4 2:0.166667 3:0.0207567 
-1 1:0.3 2:0.2 3:0.100277 
-1 1:0.15 2:0.166667 3:0.0708574 
-1 1:0.25 2:0.104167 3:0.0623032 
-1 1:0.15 2:0.0714286 3:0.0374624 
-1 1:0.25 2:0.0925926 3:0.0336463 
-1 1:0.15 2:0.0714286 3:0.0414854 
-1 1:0.3 2:0.2 3:0.0629318 
-1 1:0.2 2:0.111111 3:0.0763142 
-1 1:0.2 2:0.0740741 3:0.0522343 
-1 1:0.45 2:0.136364 3:0.0852988 
-1 1:0.35 2:0.291667 3:0.0214756 
-1 1:0.2 2:0.0740741 3:0.0624557 
-1 1:0.15 2:0.0625 3:0.105966 
-1 1:0.15 2:0.0416667 3:0.0160723 
-1 1:0.15 2:0.0714286 3:0.056034 
-1 1:0.25 2:0.119048 3:0.101872 
-1 1:0.25 2:0.104167 3:0.0755498 
-1 1:0.25 2:0.0833333 3:0.0344938 
-1 1:0.2 2:0.0833333 3:0.0816244 
-1 1:0.4 2:0.222222 3:0.080926 
-1 1:0.3 2:0.1 3:0.0397001 
-1 1:0.3 2:0.125 3:0.0320922 
-1 1:0.3 2:0.166667 3:0.0604849 
-1 1:0.15 2:0.0625 3:0.0630449 
-1 1:0.4 2:0.166667 3:0.0611345 
-1 1:0.2 2:0.0740741 3:0.0612422 
-1 1:0.4 2:0.133333 3:0.0747112 
-1 1:0.4 2:0.148148 3:0.0541018 
-1 1:0.25 2:0.138889 3:0.0623141 
-1 1:0.25 2:0.104167 3:0.0432387 
-1 1:0.2 2:0.111111 3:0.0557714 
-1 1:0.3 2:0.142857 3:0.0496134 
-1 1:0.4 2:0.190476 3:0.0483232 
-1 1:0.2 2:0.0952381 3:0.0546406 
-1 1:0.4 2:0.148148 3:0.0630415 
-1 1:0.15 2:0.25 3:0.0401444 
-1 1:0.4 2:0.222222 3:0.0750573 
-1 1:0.35 2:0.0777778 3:0.0510777 
-1 1:0.35 2:0.145833 3:0.0290163 
-1 1:0.2 2:0.166667 3:0.111638 
-1 1:0.2 2:0.0952381 3:0.0813336 
-1 1:0.3 2:0.142857 3:0.0875876 
-1 1:0.25 2:0.166667 3:0.0696946 
-1 1:0.2 2:0.0666667 3:0.0402643 
-1 1:0.15 2:0.0416667 3:0.0665758 
-1 1:0.4 2:0.444444 3:0.0651989 
-1 1:0.4 2:0.166667 3:0.0617047 
-1 1:0.2 2:0.0740741 3:0.0486678 
-1 1:0.3 2:0.0909091 3:0.0467114 
-1 1:0.35 2:0.166667 3:0.108139 
-1 1:0.3 2:0.2 3:0.0478235 
-1 1:0.15 2:0.0555556 3:0.0593032 
-1 1:0.25 2:0.104167 3:0.044794 
-1 1:0.25 2:0.0757576 3:0.102435 
-1 1:0.15 2:0.0454545 3:0.0206534 
-1 1:0.3 2:0.1 3:0.0723691 
-1 1:0.35 2:0.194444 3:0.0525672 
-1 1:0.15 2:0.0555556 3:0.0803219 
-1 1:0.3 2:0.1 3:0.0929779 
-1 1:0.4 2:0.333333 3:0.0522758 
-1 1:0.2 2:0.0740741 3:0.0461706 
-1 1:0.3 2:0.166667 3:0.0652474 
-1 1:0.25 2:0.119048 3:0.0395416 
-1 1:0.3 2:0.142857 3:0.055492 
-1 1:0.35 2:0.166667 3:0.0499921 
-1 1:0.2 2:0.222222 3:0.058674 
-1 1:0.25 2:0.166667 3:0.0835304 
-1 1:0.3 2:0.166667 3:0.0671397 
-1 1:0.35 2:0.116667 3:0.0329202 
-1 1:0.35 2:0.166667 3:0.0514002 
-1 1:0.15 2:0.125 3:0.0536098 
-1 1:0.35 2:0.12963 3:0.113486 
-1 1:0.3 2:0.1 3:0.0692736 
-1 1:0.35 2:0.145833 3:0.0411815 
-1 1:0.5 2:0.416667 3:0.111248 
-1 1:0.25 2:0.0833333 3:0.0643494 
-1 1:0.2 2:0.0606061 3:0.0383144 
-1 1:0.25 2:0.416667 3:0.0542292 
-1 1:0.3 2:0.125 3:0.05138 
-1 1:0.35 2:0.233333 3:0.0196247 
-1 1:0.3 2:0.0833333 3:0.0621316 
-1 1:0.4 2:0.121212 3:0.0416253 
-1 1:0.25 2:0.138889 3:0.0870262 
-1 1:0.2 2:0.111111 3:0.0919941 
-1 1:0.15 2:0.0714286 3:0.0687079 
-1 1:0.25 2:0.138889 3:0.0352353 
-1 1:0.25 2:0.0833333 3:0.0567669 
-1 1:0.3 2:0.111111 3:0.0475984 
-1 1:0.35 2:0.233333 3:0.0511253 
-1 1:0.4 2:0.133333 3:0.0671538 
-1 1:0.3 2:0.0909091 3:0.0502169 
-1 1:0.35 2:0.12963 3:0.0436773 
-1 1:0.35 2:0.194444 3:0.0466881 
-1 1:0.25 2:0.138889 3:0.0559586 
-1 1:0.25 2:0.166667 3:0.0671717 
-1 1:0.3 2:0.142857 3:0.0413165 
-1 1:0.35 2:0.12963 3:0.0628441 
-1 1:0.45 2:0.0882353 3:0.0457746 
-1 1:0.35 2:0.166667 3:0.0673203 
-1 1:0.35 2:0.166667 3:0.0695319 
-1 1:0.15 2:0.0357143 3:0.0767642 
-1 1:0.4 2:0.133333 3:0.105442 
-1 1:0.4 2:0.190476 3:0.0593254 
-1 1:0.25 2:0.0555556 3:0.0856444 
-1 1:0.45 2:0.25 3:0.0660407 
-1 1:0.25 2:0.104167 3:0.0355614 
-1 1:0.2 2:0.0666667 3:0.114499 
-1 1:0.25 2:0.104167 3:0.0669792 
-1 1:0.15 2:0.0555556 3:0.0370255 
-1 1:0.2 2:0.222222 3:0.041713 
-1 1:0.4 2:0.333333 3:0.0586951 
-1 1:0.4 2:0.166667 3:0.0588834 
-1 1:0.35 2:0.0972222 3:0.0480853 
-1 1:0.25 2:0.104167 3:0.0524971 
-1 1:0.3 2:0.166667 3:0.094207 
-1 1:0.15 2:0.05 3:0.0461233 
-1 1:0.35 2:0.291667 3:0.0471201 
-1 1:0.45 2:0.166667 3:0.0568362 
-1 1:0.3 2:0.142857 3:0.0341836 
-1 1:0.25 2:0.104167 3:0.0468838 
-1 1:0.35 2:0.12963 3:0.0687795 
-1 1:0.15 2:0.0833333 3:0.111451 
-1 1:0.4 2:0.266667 3:0.0537634 
-1 1:0.3 2:0.25 3:0.0380958 
-1 1:0.3 2:0.25 3:0.0643864 
-1 1:0.2 2:0.133333 3:0.0581987 
-1 1:0.3 2:0.2 3:0.0527712 
-1 1:0.3 2:0.333333 3:0.12015 
-1 1:0.35 2:0.0777778 3:0.0569403 
-1 1:0.3 2:0.142857 3:0.0427791 
-1 1:0.25 2:0.0925926 3:0.0545085 
-1 1:0.3 2:0.25 3:0.0738162 
-1 1:0.3 2:0.166667 3:0.0586922 
-1 1:0.4 2:0.133333 3:0.0505918 
-1 1:0.35 2:0.145833 3:0.039723 
-1 1:0.35 2:0.145833 3:0.077789 
-1 1:0.4 2:0.190476 3:0.0679083 
-1 1:0.25 2:0.208333 3:0.0327401 
-1 1:0.3 2:0.166667 3:0.0777342 
-1 1:0.15 2:0.0714286 3:0.0526283 
-1 1:0.2 2:0.133333 3:0.0597387 
-1 1:0.15 2:0.1 3:0.079663 
-1 1:0.25 2:0.0694444 3:0.0319583 
-1 1:0.35 2:0.145833 3:0.0632746 
-1 1:0.35 2:0.116667 3:0.0590952 
-1 1:0.2 2:0.0606061 3:0.0860985 
-1 1:0.2 2:0.0740741 3:0.0575147 
-1 1:0.4 2:0.133333 3:0.0594871 
-1 1:0.2 2:0.0952381 3:0.0891221 
-1 1:0.25 2:0.119048 3:0.0485133 
-1 1:0.35 2:0.12963 3:0.0786931 
-1 1:0.25 2:0.104167 3:0.0630865 
-1 1:0.2 2:0.133333 3:0.0486707 
-1 1:0.2 2:0.166667 3:0.060271 
-1 1:0.4 2:0.0952381 3:0.0644285 
-1 1:0.35 2:0.145833 3:0.0706927 
-1 1:0.4 2:0.133333 3:0.041691 
-1 1:0.25 2:0.277778 3:0.0731154 
-1 1:0.45 2:0.1 3:0.0568123 
-1 1:0.3 2:0.166667 3:0.0948526 
-1 1:0.2 2:0.0666667 3:0.0427332 
-1 1:0.2 2:0.0512821 3:0.0506504 
-1 1:0.45 2:0.166667 3:0.0545128 
-1 1:0.35 2:0.145833 3:0.0818417 
-1 1:0.35 2:0.194444 3:0.0435839 
-1 1:0.15 2:0.0454545 3:0.0509857 
-1 1:0.4 2:0.166667 3:0.0542832 
-1 1:0.4 2:0.266667 3:0.085141 
-1 1:0.3 2:0.2 3:0.0565916 
-1 1:0.3 2:0.125 3:0.183333 
-1 1:0.45 2:0.115385 3:0.0450803 
-1 1:0.3 2:0.25 3:0.0815744 
-1 1:0.3 2:0.25 3:0.0615068 
-1 1:0.45 2:0.5 3:0.0841308 
-1 1:0.4 2:0.222222 3:0.0534454 
-1 1:0.3 2:0.166667 3:0.106936 
-1 1:0.2 2:0.0666667 3:0.0433549 
-1 1:0.15 2:0.0625 3:0.0432994 
-1 1:0.2 2:0.0666667 3:0.045227 
-1 1:0.2 2:0.0952381 3:0.0504881 
-1 1:0.3 2:0.166667 3:0.032438 
-1 1:0.4 2:0.266667 3:0.0429083 
-1 1:0.2 2:0.222222 3:0.0288651 
-1 1:0.25 2:0.0757576 3:0.0700011 
-1 1:0.45 2:0.166667 3:0.0548786 
-1 1:0.15 2:0.0714286 3:0.0474925 
-1 1:0.25 2:0.0694444 3:0.0556761 
-1 1:0.25 2:0.208333 3:0.0603696 
-1 1:0.2 2:0.0952381 3:0.0849393 
-1 1:0.25 2:0.166667 3:0.0821466 
-1 1:0.35 2:0.106061 3:0.0514971 
-1 1:0.2 2:0.133333 3:0.0393401 
-1 1:0.3 2:0.2 3:0.0595143 
-1 1:0.4 2:0.222222 3:0.0746283 
-1 1:0.3 2:0.2 3:0.0572493 
-1 1:0.3 2:0.1 3:0.054132 
-1 1:0.15 2:0.0454545 3:0.0328484 
-1 1:0.25 2:0.119048 3:0.0452973 
-1 1:0.35 2:0.145833 3:0.0566774 
-1 1:0.3 2:0.166667 3:0.0761775 
-1 1:0.4 2:0.166667 3:0.0585167 
-1 1:0.35 2:0.12963 3:0.0366062 
-1 1:0.2 2:0.0512821 3:0.0282979 
-1 1:0.25 2:0.0925926 3:0.0173646 
-1 1:0.35 2:0.194444 3:0.064967 
-1 1:0.3 2:0.0555556 3:0.0420078 
-1 1:0.4 2:0.133333 3:0.0532499 
-1 1:0.4 2:0.266667 3:0.0457495 
-1 1:0.35 2:0.0686275 3:0.0707881 
-1 1:0.25 2:0.0694444 3:0.0596764 
-1 1:0.15 2:0.0714286 3:0.0727336 
-1 1:0.15 2:0.0625 3:0.0475912 
-1 1:0.35 2:0.388889 3:0.0896405 
-1 1:0.35 2:0.291667 3:0.0520552 
-1 1:0.45 2:0.3 3:0.0642873 
-1 1:0.35 2:0.12963 3:0.0438731 
-1 1:0.35 2:0.194444 3:0.0541637 
-1 1:0.5 2:0.333333 3:0.100185 
-1 1:0.3 2:0.0909091 3:0.0505718 
-1 1:0.4 2:0.166667 3:0.0514548 
-1 1:0.4 2:0.190476 3:0.0463914 
-1 1:0.4 2:0.444444 3:0.0479924 
-1 1:0.2 2:0.0740741 3:0.057676 
-1 1:0.25 2:0.138889 3:0.0378834 
-1 1:0.35 2:0.194444 3:0.0548005 
-1 1:0.45 2:0.214286 3:0.0585607 
-1 1:0.35 2:0.194444 3:0.0689618 
-1 1:0.35 2:0.291667 3:0.0505453 
-1 1:0.25 2:0.138889 3:0.068119 
-1 1:0.4 2:0.266667 3:0.042907 
-1 1:0.35 2:0.291667 3:0.0291626 
-1 1:0.25 2:0.0462963 3:0.0249715 
-1 1:0.25 2:0.0833333 3:0.0635943 
-1 1:0.25 2:0.0925926 3:0.0401463 
-1 1:0.4 2:0.166667 3:0.0461258 
-1 1:0.25 2:0.208333 3:0.0732994 
-1 1:0.15 2:0.0555556 3:0.0485664 
-1 1:0.35 2:0.0972222 3:0.0458892 
-1 1:0.55 2:0.130952 3:0.13976 
-1 1:0.2 2:0.333333 3:0.138366 
-1 1:0.1 2:0.0277778 3:0.0397152 
-1 1:0.5 2:0.166667 3:0.113622 
-1 1:0.4 2:0.111111 3:0.0431432 
-1 1:0.35 2:0.388889 3:0.0340963 
-1 1:0.25 2:0.119048 3:0.122034 
-1 1:0.3 2:0.25 3:0.0834334 
-1 1:0.25 2:0.166667 3:0.0509556 
-1 1:0.4 2:0.333333 3:0.0767657 
-1 1:0.3 2:0.1 3:0.0424482 
-1 1:0.35 2:0.233333 3:0.0351022 
-1 1:0.3 2:0.25 3:0.0737752 
-1 1:0.3 2:0.333333 3:0.0606712 
-1 1:0.15 2:0.0833333 3:0.0264357 
-1 1:0.35 2:0.291667 3:0.0525809 
-1 1:0.25 2:0.166667 3:0.070491 
-1 1:0.2 2:0.222222 3:0.0688099 
-1 1:0.35 2:0.166667 3:0.0412699 
-1 1:0.2 2:0.133333 3:0.0523389 
-1 1:0.35 2:0.233333 3:0.0304227 
-1 1:0.45 2:0.166667 3:0.0577481 
-1 1:0.4 2:0.148148 3:0.0635115 
-1 1:0.35 2:0.194444 3:0.0988556 
-1 1:0.35 2:0.233333 3:0.0544746 
-1 1:0.3 2:0.166667 3:0.0640093 
-1 1:0.35 2:0.116667 3:0.0936262 
-1 1:0.2 2:0.037037 3:0.045153 
-1 1:0.15 2:0.0714286 3:0.0517112 
-1 1:0.25 2:0.138889 3:0.114301 
-1 1:0.4 2:0.111111 3:0.0513897 
-1 1:0.25 2:0.0833333 3:0.00652871 
-1 1:0.45 2:0.15 3:0.0439283 
-1 1:0.25 2:0.104167 3:0.0366059 
-1 1:0.3 2:0.0909091 3:0.0569119 
-1 1:0.35 2:0.194444 3:0.035077 
-1 1:0.4 2:0.190476 3:0.0782971 
-1 1:0.4 2:0.333333 3:0.0752835 
-1 1:0.45 2:0.25 3:0.0565677 
-1 1:0.25 2:0.208333 3:0.101467 
-1 1:0.2 2:0.0833333 3:0.051536 
-1 1:0.4 2:0.166667 3:0.0517718 
-1 1:0.35 2:0.194444 3:0.0580649 
-1 1:0.25 2:0.0641026 3:0.0686495 
-1 1:0.45 2:0.25 3:0.0636164 
-1 1:0.35 2:0.166667 3:0.0560897 
-1 1:0.2 2:0.0833333 3:0.0368005 
-1 1:0.4 2:0.133333 3:0.0839776 
-1 1:0.25 2:0.166667 3:0.0354725 
-1 1:0.45 2:0.214286 3:0.0553265 
-1 1:0.4 2:0.444444 3:0.0451236 
-1 1:0.2 2:0.166667 3:0.0466213 
-1 1:0.3 2:0.0909091 3:0.0609777 
-1 1:0.3 2:0.166667 3:0.0666276 
-1 1:0.25 2:0.138889 3:0.0775254 
-1 1:0.35 2:0.166667 3:0.0762125 
-1 1:0.3 2:0.142857 3:0.0386268 
-1 1:0.25 2:0.0833333 3:0.0626383 
-1 1:0.2 2:0.166667 3:0.0349088 
-1 1:0.25 2:0.138889 3:0.0204603 
-1 1:0.45 2:0.1875 3:0.0661749 
-1 1:0.3 2:0.142857 3:0.0667835 
-1 1:0.2 2:0.111111 3:0.0859891 
-1 1:0.4 2:0.166667 3:0.0442098 
-1 1:0.15 2:0.166667 3:0.0738124 
-1 1:0.25 2:0.277778 3:0.0383092 
-1 1:0.15 2:0.0714286 3:0.0500748 
-1 1:0.3 2:0.142857 3:0.0500379 
-1 1:0.2 2:0.133333 3:0.0538503 
-1 1:0.4 2:0.266667 3:0.0482213 
-1 1:0.35 2:0.388889 3:0.0521996 
-1 1:0.25 2:0.0595238 3:0.082067 
-1 1:0.3 2:0.111111 3:0.0358885 
-1 1:0.2 2:0.0833333 3:0.0645484 
-1 1:0.35 2:0.291667 3:0.0624823 
-1 1:0.2 2:0.166667 3:0.0499326 
-1 1:0.2 2:0.222222 3:0.0315605 
-1 1:0.15 2:0.125 3:0.0509684 
-1 1:0.3 2:0.166667 3:0.0635064 
-1 1:0.2 2:0.111111 3:0.0492192 
-1 1:0.2 2:0.0833333 3:0.0391967 
-1 1:0.25 2:0.119048 3:0.0723735 
-1 1:0.4 2:0.190476 3:0.0705145 
-1 1:0.2 2:0.0833333 3:0.0552013 
-1 1:0.5 2:0.138889 3:0.104619 
-1 1:0.3 2:0.166667 3:0.0826268 
-1 1:0.2 2:0.111111 3:0.0691467 
-1 1:0.35 2:0.106061 3:0.0537799 
-1 1:0.45 2:0.107143 3:0.0599456 
-1 1:0.15 2:0.0714286 3:0.0200222 
-1 1:0.4 2:0.166667 3:0.0594003 
-1 1:0.2 2:0.0952381 3:0.0417553 
-1 1:0.15 2:0.0454545 3:0.0387757 
-1 1:0.2 2:0.0833333 3:0.0638653 
-1 1:0.3 2:0.25 3:0.0564187 
-1 1:0.3 2:0.142857 3:0.0543393 
-1 1:0.15 2:0.0714286 3:0.054265 
-1 1:0.35 2:0.116667 3:0.0465904 
-1 1:0.3 2:0.2 3:0.0275281 
-1 1:0.4 2:0.102564 3:0.0611172 
-1 1:0.3 2:0.0833333 3:0.0372348 
-1 1:0.35 2:0.166667 3:0.0520148 
-1 1:0.2 2:0.133333 3:0.0568576 
-1 1:0.25 2:0.138889 3:0.0333981 
-1 1:0.3 2:0.1 3:0.0503693 
-1 1:0.3 2:0.125 3:0.0821131 
-1 1:0.2 2:0.133333 3:0.0392355 
-1 1:0.35 2:0.388889 3:0.0506295 
-1 1:0.4 2:0.266667 3:0.0454948 
-1 1:0.4 2:0.148148 3:0.0640587 
-1 1:0.2 2:0.111111 3:0.0638564 
-1 1:0.15 2:0.0625 3:0.0559322 
-1 1:0.3 2:0.125 3:0.0494002 
-1 1:0.3 2:0.166667 3:0.0642318 
-1 1:0.25 2:0.119048 3:0.0548264 
-1 1:0.3 2:0.142857 3:0.0689839 
-1 1:0.3 2:0.2 3:0.0455604 
-1 1:0.35 2:0.583333 3:0.0332019 
-1 1:0.4 2:0.121212 3:0.0460047 
-1 1:0.4 2:0.148148 3:0.0522728 
-1 1:0.3 2:0.25 3:0.0370582 
-1 1:0.35 2:0.12963 3:0.0634232 
-1 1:0.35 2:0.145833 3:0.0859571 
-1 1:0.35 2:0.12963 3:0.0556238 
-1 1:0.2 2:0.0740741 3:0.0499119 
-1 1:0.4 2:0.222222 3:0.0298788 
-1 1:0.35 2:0.233333 3:0.037189 
-1 1:0.35 2:0.106061 3:0.0477066 
-1 1:0.4 2:0.222222 3:0.0425823 
-1 1:0.25 2:0.0833333 3:0.0369659 
-1 1:0.3 2:0.125 3:0.0531962 
-1 1:0.4 2:0.266667 3:0.056663 
-1 1:0.2 2:0.222222 3:0.0554461 
-1 1:0.35 2:0.233333 3:0.0460712 
-1 1:0.2 2:0.111111 3:0.0572774 
-1 1:0.2 2:0.0555556 3:0.0279066 
-1 1:0.35 2:0.0777778 3:0.099388 
-1 1:0.2 2:0.166667 3:0.0426523 
-1 1:0.4 2:0.166667 3:0.130784 
-1 1:0.15 2:0.0833333 3:0.0732779 
-1 1:0.3 2:0.142857 3:0.0707608 
-1 1:0.25 2:0.0833333 3:0.0684246 
-1 1:0.15 2:0.125 3:0.0533452 
-1 1:0.4 2:0.266667 3:0.0932271 
-1 1:0.4 2:0.166667 3:0.064842 
-1 1:0.2 2:0.111111 3:0.0374748 
-1 1:0.15 2:0.0714286 3:0.0711889 
-1 1:0.4 2:0.190476 3:0.0446992 
-1 1:0.3 2:0.166667 3:0.0349221 
-1 1:0.3 2:0.142857 3:0.0468788 
-1 1:0.3 2:0.5 3:0.0991936 
-1 1:0.35 2:0.0833333 3:0.0748368 
-1 1:0.4 2:0.266667 3:0.0615116 
-1 1:0.35 2:0.145833 3:0.0560156 
-1 1:0.2 2:0.0952381 3:0.0668968 
-1 1:0.25 2:0.119048 3:0.0439629 
-1 1:0.15 2:0.05 3:0.0377955 
-1 1:0.25 2:0.119048 3:0.0755448 
-1 1:0.4 2:0.0888889 3:0.0815209 
-1 1:0.45 2:0.125 3:0.0815324 
-1 1:0.25 2:0.416667 3:0.0429654 
-1 1:0.25 2:0.0694444 3:0.0829697 
-1 1:0.4 2:0.148148 3:0.0694586 
-1 1:0.35 2:0.291667 3:0.0627233 
-1 1:0.35 2:0.0897436 3:0.0525364 
-1 1:0.35 2:0.233333 3:0.0252082 
-1 1:0.2 2:0.0740741 3:0.0488841 
-1 1:0.3 2:0.2 3:0.0585473 
-1 1:0.45 2:0.1875 3:0.0598235 
-1 1:0.4 2:0.333333 3:0.0774255 
-1 1:0.2 2:0.222222 3:0.0557229 
-1 1:0.2 2:0.0952381 3:0.0483062 
-1 1:0.3 2:0.25 3:0.0622488 
-1 1:0.2 2:0.0740741 3:0.146594 
-1 1:0.2 2:0.111111 3:0.0662473 
-1 1:0.25 2:0.104167 3:0.0725449 
-1 1:0.35 2:0.0972222 3:0.0649951 
-1 1:0.15 2:0.0833333 3:0.0653201 
-1 1:0.3 2:0.2 3:0.0751726 
-1 1:0.35 2:0.194444 3:0.0572058 
-1 1:0.5 2:0.166667 3:0.0769276 
-1 1:0.35 2:0.116667 3:0.0632317 
-1 1:0.35 2:0.233333 3:0.0603608 
-1 1:0.2 2:0.0952381 3:0.0351733 
-1 1:0.35 2:0.116667 3:0.0775538 
-1 1:0.25 2:0.119048 3:0.0413371 
-1 1:0.45 2:0.136364 3:0.0866924 
-1 1:0.3 2:0.142857 3:0.058573 
-1 1:0.2 2:0.0740741 3:0.0263339 
-1 1:0.2 2:0.0740741 3:0.0527022 
-1 1:0.25 2:0.277778 3:0.108721 
-1 1:0.3 2:0.2 3:0.0569908 
-1 1:0.3 2:0.125 3:0.0309501 
-1 1:0.3 2:0.1 3:0.05255 
-1 1:0.2 2:0.222222 3:0.0490516 
-1 1:0.3 2:0.2 3:0.0356629 
-1 1:0.4 2:0.121212 3:0.149816 
-1 1:0.45 2:0.125 3:0.0548238 
-1 1:0.3 2:0.0833333 3:0.0576509 
-1 1:0.45 2:0.3 3:0.0599216 
-1 1:0.25 2:0.138889 3:0.0489834 
-1 1:0.2 2:0.0666667 3:0.0509846 
-1 1:0.3 2:0.333333 3:0.0484306 
-1 1:0.35 2:0.12963 3:0.0704054 
-1 1:0.3 2:0.166667 3:0.0640853 
-1 1:0.3 2:0.142857 3:0.065157 
-1 1:0.5 2:0.333333 3:0.0966886 
-1 1:0.35 2:0.291667 3:0.0393285 
-1 1:0.3 2:0.1 3:0.0466502 
-1 1:0.25 2:0.0757576 3:0.0754825 
-1 1:0.3 2:0.25 3:0.0159198 
-1 1:0.3 2:0.142857 3:0.0699658 
-1 1:0.2 2:0.133333 3:0.0233578 
-1 1:0.25 2:0.166667 3:0.055669 
-1 1:0.25 2:0.208333 3:0.0709713 
-1 1:0.4 2:0.222222 3:0.072653 
-1 1:0.25 2:0.138889 3:0.0834967 
-1 1:0.45 2:0.25 3:0.119845 
-1 1:0.15 2:0.0555556 3:0.0420455 
-1 1:0.3 2:0.25 3:0.0564464 
-1 1:0.15 2:0.0833333 3:0.0410457 
-1 1:0.35 2:0.145833 3:0.0698092 
-1 1:0.2 2:0.0952381 3:0.0285364 
-1 1:0.35 2:0.194444 3:0.076638 
-1 1:0.25 2:0.0757576 3:0.0554496 
-1 1:0.25 2:0.119048 3:0.104525 
-1 1:0.4 2:0.266667 3:0.0593605 
-1 1:0.3 2:0.0833333 3:0.0439739 
-1 1:0.25 2:0.119048 3:0.0587386 
-1 1:0.2 2:0.047619 3:0.0469382 
-1 1:0.3 2:0.142857 3:0.0358868 
-1 1:0.15 2:0.1 3:0.0571107 
-1 1:0.25 2:0.0757576 3:0.0468166 
-1 1:0.4 2:0.102564 3:0.0881855 
-1 1:0.2 2:0.0952381 3:0.0537008 
-1 1:0.25 2:0.0595238 3:0.097751 
-1 1:0.4 2:0.266667 3:0.0797493 
-1 1:0.35 2:0.194444 3:0.0983926 
-1 1:0.35 2:0.233333 3:0.0734666 
-1 1:0.3 2:0.2 3:0.0369011 
-1 1:0.35 2:0.194444 3:0.0223742 
-1 1:0.3 2:0.166667 3:0.0992272 
-1 1:0.35 2:0.233333 3:0.0521729 
-1 1:0.3 2:0.111111 3:0.0328904 
-1 1:0.4 2:0.190476 3:0.135304 
-1 1:0.2 2:0.222222 3:0.0627348 
-1 1:0.4 2:0.102564 3:0.0783565 
-1 1:0.25 2:0.0694444 3:0.0595989 
-1 1:0.4 2:0.444444 3:0.0504816 
-1 1:0.3 2:0.2 3:0.0483397 
-1 1:0.3 2:0.25 3:0.0603485 
-1 1:0.2 2:0.0952381 3:0.0343015 
-1 1:0.25 2:0.104167 3:0.0760555 
-1 1:0.3 2:0.111111 3:0.0338873 
-1 1:0.15 2:0.0714286 3:0.0494279 
-1 1:0.5 2:0.166667 3:0.143064 
-1 1:0.2 2:0.111111 3:0.0699794 
-1 1:0.25 2:0.0925926 3:0.0734468 
-1 1:0.15 2:0.125 3:0.0465595 
-1 1:0.3 2:0.142857 3:0.0416664 
-1 1:0.45 2:0.15 3:0.0684207 
-1 1:0.25 2:0.138889 3:0.0617906 
-1 1:0.3 2:0.111111 3:0.0685527 
-1 1:0.2 2:0.0833333 3:0.0562924 
-1 1:0.2 2:0.0740741 3:0.0370998 
-1 1:0.45 2:0.136364 3:0.0505381 
-1 1:0.3 2:0.2 3:0.0844631 
-1 1:0.35 2:0.233333 3:0.059016 
-1 1:0.25 2:0.119048 3:0.055255 
-1 1:0.4 2:0.444444 3:0.05039 
-1 1:0.2 2:0.133333 3:0.0476867 
-1 1:0.35 2:0.166667 3:0.0516791 
-1 1:0.35 2:0.106061 3:0.0431283 
-1 1:0.4 2:0.333333 3:0.0768048 
-1 1:0.3 2:0.142857 3:0.0566441 
-1 1:0.25 2:0.208333 3:0.0820965 
-1 1:0.45 2:0.166667 3:0.0616824 
-1 1:0.2 2:0.0952381 3:0.0365509 
-1 1:0.15 2:0.166667 3:0.0591445 
-1 1:0.25 2:0.119048 3:0.062401 
-1 1:0.35 2:0.166667 3:0.0764923 
-1 1:0.15 2:0.166667 3:0.0384072 
-1 1:0.2 2:0.0740741 3:0.0405554 
-1 1:0.25 2:0.0925926 3:0.0513353 
-1 1:0.25 2:0.104167 3:0.0539047 
-1 1:0.35 2:0.116667 3:0.048049 
-1 1:0.3 2:0.0909091 3:0.0326679 
-1 1:0.25 2:0.166667 3:0.0624553 
-1 1:0.35 2:0.194444 3:0.0532086 
-1 1:0.15 2:0.0714286 3:0.106075 
-1 1:0.35 2:0.106061 3:0.0544392 
-1 1:0.1 2:0.111111 3:0.0637406 
-1 1:0.35 2:0.291667 3:0.0371693 
-1 1:0.4 2:0.133333 3:0.0564356 
-1 1:0.35 2:0.194444 3:0.0999098 
-1 1:0.2 2:0.111111 3:0.0490761 
-1 1:0.15 2:0.1 3:0.053877 
-1 1:0.15 2:0.125 3:0.0562447 
-1 1:0.2 2:0.0952381 3:0.0584321 
-1 1:0.3 2:0.0555556 3:0.0537493 
-1 1:0.35 2:0.145833 3:0.0410607 
-1 1:0.2 2:0.0512821 3:0.0541546 
-1 1:0.35 2:0.166667 3:0.0656212 
-1 1:0.4 2:0.148148 3:0.0513011 
-1 1:0.3 2:0.166667 3:0.0762637 
-1 1:0.35 2:0.194444 3:0.0633134 
-1 1:0.25 2:0.119048 3:0.0242368 
-1 1:0.25 2:0.166667 3:0.0855208 
-1 1:0.3 2:0.166667 3:0.0543865 
-1 1:0.25 2:0.104167 3:0.0591037 
-1 1:0.3 2:0.166667 3:0.0560696 
-1 1:0.25 2:0.104167 3:0.0677672 
-1 1:0.4 2:0.222222 3:0.0452348 
-0.7100214044193974 1:0.45 2:0.25 3:0.0535078 
-1 1:0.35 2:0.388889 3:0.0640473 
-1 1:0.15 2:0.1 3:0.0336118 
-1 1:0.25 2:0.277778 3:0.0634389 
-1 1:0.25 2:0.119048 3:0.0872734 
-1 1:0.45 2:0.15 3:0.0484512 
-1 1:0.2 2:0.0606061 3:0.0750232 
-1 1:0.35 2:0.388889 3:0.0560763 
-1 1:0.2 2:0.222222 3:0.0426059 
-1 1:0.3 2:0.125 3:0.015726 
-1 1:0.35 2:0.12963 3:0.0581918 
-1 1:0.4 2:0.111111 3:0.077575 
-1 1:0.2 2:0.0833333 3:0.0396263 
-1 1:0.2 2:0.0512821 3:0.0320004 
-1 1:0.35 2:0.291667 3:0.0589332 
-1 1:0.25 2:0.0694444 3:0.0535955 
-1 1:0.25 2:0.208333 3:0.0828251 
-1 1:0.25 2:0.138889 3:0.0714718 
-1 1:0.4 2:0.148148 3:0.0430101 
-1 1:0.45 2:0.25 3:0.0644266 
-1 1:0.3 2:0.111111 3:0.062391 
-1 1:0.35 2:0.233333 3:0.07234 
-1 1:0.1 2:0.111111 3:0.0480782 
-1 1:0.45 2:0.3 3:0.0848537 
-1 1:0.4 2:0.166667 3:0.0544779 
-1 1:0.35 2:0.194444 3:0.0547303 
-1 1:0.25 2:0.104167 3:0.0656651 
-1 1:0.2 2:0.133333 3:0.0332755 
-1 1:0.45 2:0.1875 3:0.066736 
-1 1:0.3 2:0.166667 3:0.0200885 
-1 1:0.2 2:0.166667 3:0.0314086 
-1 1:0.35 2:0.388889 3:0.053717 
-1 1:0.35 2:0.0729167 3:0.0467613 
-1 1:0.2 2:0.047619 3:0.0541096 
-1 1:0.4 2:0.222222 3:0.040641 
-1 1:0.25 2:0.208333 3:0.0629729 
-1 1:0.35 2:0.12963 3:0.0626071 
-1 1:0.4 2:0.444444 3:0.0607528 
-1 1:0.35 2:0.291667 3:0.0745034 
-1 1:0.35 2:0.0972222 3:0.0489236 
-1 1:0.25 2:0.119048 3:0.0801992 
-1 1:0.15 2:0.05 3:0.0809795 
-1 1:0.4 2:0.148148 3:0.0256788 
-1 1:0.4 2:0.111111 3:0.02981 
-1 1:0.4 2:0.190476 3:0.0779149 
-1 1:0.25 2:0.0833333 3:0.0446203 
-1 1:0.3 2:0.333333 3:0.0750856 
-1 1:0.3 2:0.111111 3:0.0507328 
-1 1:0.15 2:0.0555556 3:0.0514883 
-1 1:0.2 2:0.0952381 3:0.0543659 
-1 1:0.35 2:0.12963 3:0.0584623 
-1 1:0.3 2:0.166667 3:0.0435875 
-1 1:0.2 2:0.166667 3:0.0542348 
-1 1:0.25 2:0.166667 3:0.0447892 
-1 1:0.25 2:0.0694444 3:0.0523687 
-1 1:0.4 2:0.190476 3:0.0328786 
-1 1:0.4 2:0.111111 3:0.0768683 
-1 1:0.4 2:0.222222 3:0.0603253 
-1 1:0.4 2:0.148148 3:0.0477612 
-1 1:0.3 2:0.142857 3:0.0113444 
-1 1:0.4 2:0.266667 3:0.046617 
-1 1:0.4 2:0.166667 3:0.0830214 
-1 1:0.45 2:0.1875 3:0.0648951 
-1 1:0.35 2:0.291667 3:0.0384049 
-1 1:0.3 2:0.25 3:0.0702307 
-1 1:0.25 2:0.166667 3:0.0457588 
-1 1:0.35 2:0.291667 3:0.0426362 
-1 1:0.25 2:0.0833333 3:0.0547852 
-1 1:0.3 2:0.111111 3:0.0685233 
-1 1:0.2 2:0.111111 3:0.0450874 
-1 1:0.35 2:0.166667 3:0.0960627 
-1 1:0.25 2:0.119048 3:0.0434226 
-1 1:0.4 2:0.333333 3:0.0985353 
-1 1:0.3 2:0.125 3:0.0488876 
-1 1:0.25 2:0.277778 3:0.0573493 
-1 1:0.2 2:0.0666667 3:0.0707474 
-1 1:0.35 2:0.388889 3:0.0343126 
-1 1:0.15 2:0.0714286 3:0.0350663 
-1 1:0.25 2:0.104167 3:0.0293191 
-1 1:0.4 2:0.111111 3:0.05199 
-1 1:0.25 2:0.138889 3:0.0760821 
-1 1:0.3 2:0.166667 3:0.0653259 
-1 1:0.4 2:0.121212 3:0.0699537 
-1 1:0.15 2:0.05 3:0.0631912 
-1 1:0.2 2:0.111111 3:0.0798625 
-1 1:0.3 2:0.25 3:0.0855933 
-1 1:0.2 2:0.0555556 3:0.0475405 
-1 1:0.35 2:0.116667 3:0.065584 
-1 1:0.3 2:0.125 3:0.0574556 
-1 1:0.3 2:0.142857 3:0.0589614 
-1 1:0.3 2:0.2 3:0.0779438 
-1 1:0.25 2:0.208333 3:0.084835 
-1 1:0.2 2:0.0833333 3:0.0521663 
-1 1:0.4 2:0.333333 3:0.0584261 
-1 1:0.35 2:0.12963 3:0.0541304 
-1 1:0.3 2:0.1 3:0.0573052 
-1 1:0.15 2:0.125 3:0.0441966 
-1 1:0.25 2:0.166667 3:0.00233706 
-1 1:0.2 2:0.111111 3:0.0499382 
-1 1:0.35 2:0.291667 3:0.0659799 
-1 1:0.4 2:0.121212 3:0.0537672 
-1 1:0.3 2:0.333333 3:0.0600046 
-1 1:0.35 2:0.145833 3:0.058823 
-1 1:0.25 2:0.138889 3:0.0668965 
-1 1:0.25 2:0.0833333 3:0.0759702 
-1 1:0.35 2:0.116667 3:0.0361056 
-1 1:0.25 2:0.138889 3:0.0373549 
-1 1:0.3 2:0.142857 3:0.0417281 
-1 1:0.25 2:0.104167 3:0.0498098 
-1 1:0.15 2:0.125 3:0.0538183 
-1 1:0.35 2:0.12963 3:0.0618014 
-1 1:0.2 2:0.0666667 3:0.0619336 
-1 1:0.2 2:0.0512821 3:0.0492617 
-1 1:0.25 2:0.119048 3:0.0388321 
-1 1:0.2 2:0.0952381 3:0.0427659 
-1 1:0.35 2:0.166667 3:0.0538033 
-1 1:0.3 2:0.25 3:0.030376 
-1 1:0.4 2:0.133333 3:0.0402923 
-1 1:0.35 2:0.233333 3:0.0657551 
-1 1:0.25 2:0.119048 3:0.047403 
-1 1:0.25 2:0.104167 3:0.0499866 
-1 1:0.3 2:0.125 3:0.0292181 
-1 1:0.2 2:0.0833333 3:0.0456561 
-1 1:0.35 2:0.166667 3:0.0901569 
-1 1:0.3 2:0.166667 3:0.0529562 
-1 1:0.25 2:0.166667 3:0.0399892 
-1 1:0.15 2:0.1 3:0.0655202 
-1 1:0.3 2:0.166667 3:0.0594196 
-1 1:0.25 2:0.138889 3:0.0467051 
-1 1:0.15 2:0.0714286 3:0.0653726 
-1 1:0.3 2:0.142857 3:0.104853 
-1 1:0.35 2:0.12963 3:0.0890874 
-1 1:0.3 2:0.142857 3:0.0408889 
-1 1:0.1 2:0.0333333 3:0.0470917 
-1 1:0.25 2:0.0757576 3:0.0905193 
-1 1:0.35 2:0.145833 3:0.0604187 
-1 1:0.2 2:0.0833333 3:0.0779471 
-1 1:0.2 2:0.166667 3:0.0972184 
-1 1:0.3 2:0.166667 3:0.0377275 
-1 1:0.4 2:0.444444 3:0.0444816 
-1 1:0.35 2:0.291667 3:0.054056 
-1 1:0.3 2:0.125 3:0.0506123 
-1 1:0.2 2:0.111111 3:0.059808 
-1 1:0.25 2:0.208333 3:0.0273934 
-1 1:0.15 2:0.0555556 3:0.0538844 
-1 1:0.2 2:0.0740741 3:0.0319999 
-1 1:0.35 2:0.0833333 3:0.0568152 
-1 1:0.35 2:0.291667 3:0.0489865 
-1 1:0.25 2:0.208333 3:0.0537051 
-1 1:0.15 2:0.0555556 3:0.0547492 
-1 1:0.15 2:0.0714286 3:0.0380308 
-1 1:0.35 2:0.166667 3:0.0722486 
-1 1:0.15 2:0.125 3:0.0415559 
-1 1:0.35 2:0.194444 3:0.066058 
-1 1:0.4 2:0.333333 3:0.0469804 
-1 1:0.3 2:0.0714286 3:0.0584353 
-1 1:0.2 2:0.0833333 3:0.0191509 
-1 1:0.25 2:0.0694444 3:0.0443039 
-1 1:0.35 2:0.233333 3:0.0309516 
-1 1:0.2 2:0.166667 3:0.018665 
-1 1:0.35 2:0.145833 3:0.0989266 
-1 1:0.4 2:0.190476 3:0.0847626 
-1 1:0.15 2:0.1 3:0.0413382 
-1 1:0.35 2:0.12963 3:0.0469128 
-1 1:0.5 2:0.277778 3:0.0946201 
-1 1:0.3 2:0.1 3:0.0680837 
-1 1:0.3 2:0.125 3:0.060637 
-1 1:0.15 2:0.0454545 3:0.0506171 
-1 1:0.35 2:0.145833 3:0.0574463 
-1 1:0.35 2:0.145833 3:0.035794 
-1 1:0.3 2:0.125 3:0.0593864 
-1 1:0.25 2:0.119048 3:0.120172 
-1 1:0.35 2:0.166667 3:0.0692543 
-1 1:0.45 2:0.25 3:0.0630936 
-1 1:0.25 2:0.119048 3:0.0491452 
-1 1:0.3 2:0.333333 3:0.0717019 
-1 1:0.2 2:0.0512821 3:0.062654 
-1 1:0.4 2:0.266667 3:0.0497946 
-1 1:0.2 2:0.0833333 3:0.0519548 
-1 1:0.4 2:0.148148 3:0.0702494 
-1 1:0.35 2:0.106061 3:0.0386858 
-1 1:0.3 2:0.166667 3:0.0437813 
-1 1:0.25 2:0.104167 3:0.0304094 
-1 1:0.3 2:0.333333 3:0.0790992 
-1 1:0.3 2:0.2 3:0.0563334 
-1 1:0.4 2:0.166667 3:0.0433249 
-1 1:0.4 2:0.266667 3:0.0784763 
-1 1:0.25 2:0.0925926 3:0.0605806 
-1 1:0.35 2:0.12963 3:0.057051 
-1 1:0.35 2:0.145833 3:0.0568952 
-1 1:0.15 2:0.1 3:0.0297393 
-1 1:0.3 2:0.0769231 3:0.0489456 
-1 1:0.3 2:0.125 3:0.0316917 
-1 1:0.25 2:0.166667 3:0.032884 
-1 1:0.25 2:0.166667 3:0.041815 
-1 1:0.2 2:0.133333 3:0.0376915 
-1 1:0.25 2:0.166667 3:0.0647358 
-1 1:0.2 2:0.0740741 3:0.0712846 
-1 1:0.25 2:0.119048 3:0.0618439 
-1 1:0.35 2:0.166667 3:0.0241099 
-1 1:0.45 2:0.15 3:0.0895431 
-1 1:0.45 2:0.1875 3:0.060993 
-1 1:0.35 2:0.233333 3:0.0209374 
-1 1:0.35 2:0.166667 3:0.0558766 
-1 1:0.15 2:0.0454545 3:0.0270961 
-1 1:0.35 2:0.291667 3:0.0436382 
-1 1:0.25 2:0.208333 3:0.0458004 
-1 1:0.35 2:0.166667 3:0.0508531 
-1 1:0.35 2:0.291667 3:0.0499222 
-1 1:0.35 2:0.233333 3:0.0481384 
-1 1:0.25 2:0.166667 3:0.05113 
-1 1:0.15 2:0.0833333 3:0.0734376 
-1 1:0.35 2:0.233333 3:0.0397863 
-1 1:0.3 2:0.25 3:0.0477368 
-1 1:0.2 2:0.133333 3:0.079158 
-1 1:0.25 2:0.0694444 3:0.0396873 
-1 1:0.4 2:0.190476 3:0.0689095 
-1 1:0.3 2:0.25 3:0.114448 
-1 1:0.15 2:0.1 3:0.0726853 
-1 1:0.35 2:0.106061 3:0.0368658 
-1 1:0.25 2:0.208333 3:0.0535293 
-1 1:0.4 2:0.444444 3:0.0666816 
-1 1:0.3 2:0.142857 3:0.036747 
-1 1:0.25 2:0.208333 3:0.0784779 
-1 1:0.3 2:0.142857 3:0.0613 
-1 1:0.15 2:0.0625 3:0.0405419 
-1 1:0.25 2:0.208333 3:0.0668277 
-1 1:0.2 2:0.166667 3:0.0432106 
-1 1:0.2 2:0.0952381 3:0.0671681 
-1 1:0.2 2:0.133333 3:0.11395 
-1 1:0.45 2:0.1875 3:0.0606864 
-1 1:0.25 2:0.119048 3:0.049315 
-1 1:0.25 2:0.208333 3:0.119522 
-1 1:0.35 2:0.145833 3:0.0486151 
-1 1:0.3 2:0.1 3:0.0979078 
-1 1:0.3 2:0.25 3:0.0939936 
-1 1:0.2 2:0.0555556 3:0.0542923 
-1 1:0.2 2:0.0555556 3:0.0407008 
-1 1:0.3 2:0.142857 3:0.0509991 
-1 1:0.4 2:0.102564 3:0.0649005 
-1 1:0.25 2:0.0833333 3:0.02216 
-1 1:0.2 2:0.222222 3:0.0556701 
-1 1:0.25 2:0.119048 3:0.0489393 
-1 1:0.4 2:0.190476 3:0.0613365 
-1 1:0.15 2:0.05 3:0.0322418 
-1 1:0.2 2:0.0606061 3:0.0338943 
-1 1:0.25 2:0.0833333 3:0.0376228 
-1 1:0.4 2:0.444444 3:0.0571383 
-1 1:0.2 2:0.111111 3:0.0363241 
-1 1:0.35 2:0.106061 3:0.0542312 
-1 1:0.25 2:0.104167 3:0.0564207 
-1 1:0.35 2:0.194444 3:0.0776923 
-1 1:0.2 2:0.0606061 3:0.0523815 
-1 1:0.4 2:0.222222 3:0.0548839 
-1 1:0.45 2:0.3 3:0.0604226 
-1 1:0.45 2:0.3 3:0.0996276 
-1 1:0.35 2:0.291667 3:0.0453606 
-1 1:0.25 2:0.208333 3:0.0174634 
-1 1:0.25 2:0.119048 3:0.0872036 
-1 1:0.3 2:0.142857 3:0.063898 
-1 1:0.2 2:0.0666667 3:0.0651454 
-1 1:0.2 2:0.0740741 3:0.042928 
-1 1:0.2 2:0.111111 3:0.0643835 
-1 1:0.25 2:0.0694444 3:0.102453 
-1 1:0.3 2:0.333333 3:0.0361784 
-1 1:0.25 2:0.104167 3:0.0751869 
-1 1:0.3 2:0.0909091 3:0.0391895 
-1 1:0.4 2:0.190476 3:0.0642188 
-1 1:0.4 2:0.266667 3:0.0618375 
-1 1:0.35 2:0.166667 3:0.0540143 
-1 1:0.25 2:0.0833333 3:0.0853682 
-1 1:0.15 2:0.0833333 3:0.0706422 
-1 1:0.4 2:0.133333 3:0.0963998 
-1 1:0.2 2:0.0952381 3:0.069532 
-1 1:0.25 2:0.104167 3:0.0422001 
-1 1:0.2 2:0.166667 3:0.0560741 
-1 1:0.3 2:0.2 3:0.111376 
-1 1:0.45 2:0.107143 3:0.0488182 
-1 1:0.25 2:0.138889 3:0.0945428 
-1 1:0.15 2:0.0833333 3:0.0793689 
-1 1:0.15 2:0.125 3:0.0710895 
-1 1:0.15 2:0.0714286 3:0.0566607 
-1 1:0.2 2:0.0555556 3:0.042634 
-1 1:0.35 2:0.166667 3:0.0497652 
-1 1:0.3 2:0.166667 3:0.0558706 
-1 1:0.15 2:0.1 3:0.0458612 
-1 1:0.3 2:0.333333 3:0.0733549 
-1 1:0.3 2:0.142857 3:0.0825473 
-1 1:0.35 2:0.166667 3:0.0451029 
-1 1:0.35 2:0.166667 3:0.0675654 
-1 1:0.2 2:0.133333 3:0.107731 
-1 1:0.2 2:0.133333 3:0.0553958 
-1 1:0.45 2:0.115385 3:0.068958 
-1 1:0.3 2:0.1 3:0.0472918 
-1 1:0.15 2:0.0714286 3:0.0631452 
-1 1:0.35 2:0.116667 3:0.0421785 
-1 1:0.25 2:0.208333 3:0.109243 
-1 1:0.4 2:0.333333 3:0.0565962 
-1 1:0.4 2:0.266667 3:0.0617413 
-1 1:0.35 2:0.116667 3:0.067446 
-1 1:0.2 2:0.0555556 3:0.0765828 
-1 1:0.2 2:0.166667 3:0.0595152 
-1 1:0.2 2:0.0740741 3:0.0388982 
-1 1:0.2 2:0.133333 3:0.0483771 
-1 1:0.4 2:0.102564 3:0.0494554 
-1 1:0.3 2:0.333333 3:0.0521979 
-1 1:0.3 2:0.333333 3:0.0518678 
-1 1:0.2 2:0.133333 3:0.0675514 
-1 1:0.35 2:0.12963 3:0.0464643 
-1 1:0.3 2:0.333333 3:0.0599012 
-1 1:0.2 2:0.0952381 3:0.0506332 
-1 1:0.15 2:0.0714286 3:0.0733482 
-1 1:0.4 2:0.121212 3:0.0765834 
-1 1:0.35 2:0.145833 3:0.067372 
-1 1:0.15 2:0.125 3:0.0556026 
-1 1:0.15 2:0.0625 3:0.0630962 
-1 1:0.5 2:0.238095 3:0.10201 
-1 1:0.3 2:0.142857 3:0.0643913 
-1 1:0.2 2:0.0952381 3:0.110035 
-1 1:0.3 2:0.333333 3:0.0642848 
-1 1:0.3 2:0.2 3:0.0737891 
-1 1:0.45 2:0.115385 3:0.053204 
-1 1:0.15 2:0.0714286 3:0.05906 
-1 1:0.4 2:0.148148 3:0.0629631 
-1 1:0.35 2:0.0972222 3:0.0404986 
-1 1:0.3 2:0.25 3:0.049442 
-1 1:0.35 2:0.166667 3:0.0430407 
-1 1:0.4 2:0.148148 3:0.0601773 
-1 1:0.25 2:0.277778 3:0.0348623 
-1 1:0.1 2:0.030303 3:0.039243 
-1 1:0.2 2:0.0952381 3:0.0598438 
-1 1:0.4 2:0.133333 3:0.0441716 
-1 1:0.35 2:0.145833 3:0.0804763 
-1 1:0.3 2:0.2 3:0.0636583 
-1 1:0.15 2:0.25 3:0.055997 
-1 1:0.45 2:0.107143 3:0.0676305 
-1 1:0.3 2:0.166667 3:0.0453871 
-1 1:0.25 2:0.208333 3:0.0449437 
-1 1:0.45 2:0.136364 3:0.057901 
-1 1:0.15 2:0.0555556 3:0.0660286 
-1 1:0.35 2:0.106061 3:0.104489 
-1 1:0.3 2:0.0909091 3:0.0462756 
-1 1:0.35 2:0.233333 3:0.0581295 
-1 1:0.35 2:0.0897436 3:0.0327152 
-1 1:0.35 2:0.12963 3:0.0582423 
-1 1:0.2 2:0.0555556 3:0.0672866 
-1 1:0.35 2:0.194444 3:0.0856557 
-1 1:0.15 2:0.0454545 3:0.0484368 
-1 1:0.25 2:0.277778 3:0.0349199 
-1 1:0.3 2:0.125 3:0.0594495 
-1 1:0.35 2:0.233333 3:0.0573053 
-1 1:0.2 2:0.111111 3:0.0773025 
-1 1:0.15 2:0.25 3:0.0391757 
-1 1:0.15 2:0.0416667 3:0.119375 
-1 1:0.25 2:0.119048 3:0.0448897 
-1 1:0.25 2:0.0757576 3:0.0549305 
-1 1:0.3 2:0.333333 3:0.0593781 
-1 1:0.35 2:0.194444 3:0.110407 
-1 1:0.35 2:0.166667 3:0.082145 
-1 1:0.3 2:0.142857 3:0.0507115 
-1 1:0.25 2:0.0641026 3:0.0521583 
-1 1:0.25 2:0.208333 3:0.0451877 
-1 1:0.4 2:0.121212 3:0.0872314 
-1 1:0.25 2:0.0925926 3:0.0646453 
-1 1:0.25 2:0.0925926 3:0.0546198 
-1 1:0.3 2:0.333333 3:0.0694988 
-1 1:0.3 2:0.166667 3:0.0568563 
-1 1:0.25 2:0.0833333 3:0.0424662 
-1 1:0.3 2:0.111111 3:0.0414306 
-1 1:0.1 2:0.047619 3:0.0470429 
-1 1:0.2 2:0.0555556 3:0.0582802 
-1 1:0.15 2:0.1 3:0.046034 
-1 1:0.4 2:0.190476 3:0.0646075 
-1 1:0.35 2:0.145833 3:0.0404983 
-1 1:0.4 2:0.222222 3:0.061592 
-1 1:0.3 2:0.111111 3:0.104393 
-1 1:0.25 2:0.0925926 3:0.0513347 
-1 1:0.3 2:0.142857 3:0.0376089 
-1 1:0.35 2:0.116667 3:0.196633 
-1 1:0.2 2:0.0606061 3:0.0640804 
-1 1:0.3 2:0.0769231 3:0.0527452 
-1 1:0.35 2:0.145833 3:0.0645893 
-1 1:0.15 2:0.1 3:0.0495111 
-1 1:0.25 2:0.0833333 3:0.0545291 
-1 1:0.35 2:0.145833 3:0.0628181 
-1 1:0.35 2:0.233333 3:0.0547791 
-1 1:0.3 2:0.5 3:0.0560424 
-1 1:0.4 2:0.121212 3:0.0302603 
-1 1:0.35 2:0.12963 3:0.0363395 
-1 1:0.3 2:0.125 3:0.0479723 
-1 1:0.45 2:0.15 3:0.0662888 
-1 1:0.3 2:0.125 3:0.0697898 
-1 1:0.35 2:0.166667 3:0.035565 
-1 1:0.35 2:0.145833 3:0.0614472 
-1 1:0.3 2:0.25 3:0.0865529 
-1 1:0.1 2:0.111111 3:0.0385338 
-1 1:0.2 2:0.111111 3:0.109655 
-1 1:0.4 2:0.333333 3:0.0486288 
-1 1:0.15 2:0.0714286 3:0.0343971 
-1 1:0.15 2:0.0416667 3:0.0494868 
-1 1:0.3 2:0.25 3:0.0707009 
-1 1:0.15 2:0.166667 3:0.0646002 
-1 1:0.2 2:0.222222 3:0.0556718 
-1 1:0.2 2:0.0555556 3:0.0497083 
-1 1:0.35 2:0.116667 3:0.0822978 
-1 1:0.4 2:0.333333 3:0.070349 
-1 1:0.35 2:0.116667 3:0.0519741 
-1 1:0.25 2:0.166667 3:0.0917415 
-1 1:0.2 2:0.0740741 3:0.0835814 
-1 1:0.3 2:0.166667 3:0.0563862 
-1 1:0.45 2:0.136364 3:0.0497614 
-1 1:0.4 2:0.111111 3:0.0458702 
-1 1:0.35 2:0.194444 3:0.0766839 
-1 1:0.35 2:0.106061 3:0.0649592 
-1 1:0.2 2:0.0833333 3:0.0554487 
-1 1:0.2 2:0.111111 3:0.0942475 
-1 1:0.2 2:0.0666667 3:0.037316 
-1 1:0.25 2:0.138889 3:0.0676905 
-1 1:0.3 2:0.25 3:0.048034 
-1 1:0.45 2:0.214286 3:0.0657634 
-1 1:0.1 2:0.047619 3:0.0374634 
-1 1:0.25 2:0.104167 3:0.0995841 
-1 1:0.35 2:0.106061 3:0.0406585 
-1 1:0.35 2:0.116667 3:0.0612472 
-1 1:0.25 2:0.0757576 3:0.0277558 
-1 1:0.35 2:0.194444 3:0.0732268 
-1 1:0.2 2:0.0740741 3:0.0598581 
-1 1:0.25 2:0.119048 3:0.095106 
-1 1:0.3 2:0.0769231 3:0.0617643 
-1 1:0.3 2:0.142857 3:0.0471751 
-1 1:0.2 2:0.333333 3:0.087091 
-1 1:0.3 2:0.25 3:0.0764561 
-1 1:0.4 2:0.333333 3:0.0558874 
-1 1:0.2 2:0.0555556 3:0.0564032 
-1 1:0.4 2:0.148148 3:0.0428161 
-1 1:0.4 2:0.190476 3:0.0461239 
-1 1:0.35 2:0.145833 3:0.0685412 
-1 1:0.2 2:0.0740741 3:0.0624313 
-1 1:0.35 2:0.166667 3:0.0585832 
-1 1:0.35 2:0.583333 3:0.0365669 
-1 1:0.3 2:0.111111 3:0.0740171 
-1 1:0.2 2:0.222222 3:0.0216825 
-1 1:0.4 2:0.148148 3:0.121914 
-1 1:0.25 2:0.104167 3:0.0305395 
-1 1:0.45 2:0.1 3:0.0701742 
-1 1:0.25 2:0.0694444 3:0.0431051 
-1 1:0.25 2:0.119048 3:0.0588915 
-1 1:0.15 2:0.0625 3:0.0354473 
-1 1:0.3 2:0.25 3:0.0435908 
-1 1:0.25 2:0.119048 3:0.0452375 
-1 1:0.35 2:0.166667 3:0.0750917 
-1 1:0.3 2:0.142857 3:0.0272994 
-1 1:0.25 2:0.104167 3:0.061741 
-1 1:0.4 2:0.444444 3:0.0509697 
-1 1:0.15 2:0.166667 3:0.0752733 
-1 1:0.25 2:0.0757576 3:0.0479344 
-1 1:0.3 2:0.166667 3:0.0563605 
-1 1:0.45 2:0.214286 3:0.0571316 
-1 1:0.15 2:0.0714286 3:0.0721511 
-1 1:0.15 2:0.1 3:0.0737012 
-1 1:0.35 2:0.388889 3:0.0751814 
-1 1:0.25 2:0.208333 3:0.0662436 
-1 1:0.15 2:0.0625 3:0.056406 
-1 1:0.25 2:0.166667 3:0.0420232 
-1 1:0.35 2:0.106061 3:0.056928 
-1 1:0.3 2:0.125 3:0.0483908 
-1 1:0.4 2:0.190476 3:0.0551697 
-1 1:0.35 2:0.166667 3:0.0523093 
-1 1:0.15 2:0.125 3:0.0424026 
-1 1:0.2 2:0.166667 3:0.0478319 
-1 1:0.35 2:0.106061 3:0.0540525 
-1 1:0.25 2:0.138889 3:0.043935 
-1 1:0.35 2:0.233333 3:0.0401226 
-1 1:0.2 2:0.133333 3:0.0625579 
-1 1:0.35 2:0.12963 3:0.0674262 
-1 1:0.2 2:0.0833333 3:0.234723 
-1 1:0.25 2:0.104167 3:0.0535279 
-1 1:0.45 2:0.3 3:0.0774336 
-1 1:0.3 2:0.142857 3:0.0352351 
-1 1:0.25 2:0.119048 3:0.0680139 
-1 1:0.15 2:0.125 3:0.0732224 
-1 1:0.3 2:0.142857 3:0.0521979 
-1 1:0.3 2:0.2 3:0.0549675 
-1 1:0.3 2:0.0909091 3:0.0688353 
-1 1:0.3 2:0.125 3:0.0578783 
-1 1:0.25 2:0.0925926 3:0.104777 
-1 1:0.35 2:0.194444 3:0.0720888 
-1 1:0.25 2:0.0925926 3:0.0950779 
-1 1:0.1 2:0.047619 3:0.035888 
-1 1:0.3 2:0.1 3:0.0602679 
-1 1:0.3 2:0.166667 3:0.0511433 
-1 1:0.3 2:0.0666667 3:0.0363353 
-1 1:0.25 2:0.0757576 3:0.192042 
-1 1:0.4 2:0.222222 3:0.0566925 
-1 1:0.35 2:0.291667 3:0.0558589 
-1 1:0.3 2:0.125 3:0.0429448 
-1 1:0.1 2:0.037037 3:0.0582505 
-1 1:0.3 2:0.166667 3:0.0430108 
-1 1:0.2 2:0.0555556 3:0.0431699 
-1 1:0.35 2:0.194444 3:0.0391553 
-1 1:0.3 2:0.25 3:0.0510197 
-1 1:0.2 2:0.166667 3:0.0533758 
-1 1:0.35 2:0.194444 3:0.0750481 
-1 1:0.4 2:0.111111 3:0.0550243 
-1 1:0.4 2:0.121212 3:0.118102 
-1 1:0.2 2:0.0952381 3:0.0411351 
-1 1:0.2 2:0.111111 3:0.0979081 
-1 1:0.35 2:0.166667 3:0.0667209 
-1 1:0.15 2:0.0625 3:0.0519469 
-1 1:0.4 2:0.444444 3:0.0703619 
-1 1:0.3 2:0.2 3:0.12634 
-1 1:0.45 2:0.25 3:0.0832794 
-1 1:0.2 2:0.166667 3:0.0651065 
-1 1:0.2 2:0.222222 3:0.0198258 
-1 1:0.3 2:0.166667 3:0.0385973 
-1 1:0.25 2:0.119048 3:0.0781829 
-1 1:0.25 2:0.0694444 3:0.0893348 
-1 1:0.45 2:0.214286 3:0.0542055 
-1 1:0.25 2:0.277778 3:0.0713161 
-1 1:0.1 2:0.047619 3:0.11102 
-1 1:0.25 2:0.0833333 3:0.0378579 
-1 1:0.45 2:0.25 3:0.0555815 
-1 1:0.3 2:0.142857 3:0.0428584 
-1 1:0.4 2:0.133333 3:0.0893639 
-1 1:0.15 2:0.125 3:0.0419431 
-1 1:0.25 2:0.0694444 3:0.0619467 
-1 1:0.35 2:0.166667 3:0.0598279 
-1 1:0.2 2:0.111111 3:0.0479619 
-1 1:0.3 2:0.1 3:0.0328309 
-1 1:0.25 2:0.208333 3:0.0178731 
-1 1:0.4 2:0.222222 3:0.0526108 
-1 1:0.4 2:0.133333 3:0.0544104 
-1 1:0.25 2:0.119048 3:0.0716383 
-1 1:0.25 2:0.0757576 3:0.0708107 
-1 1:0.15 2:0.0833333 3:0.0921592 
-1 1:0.35 2:0.145833 3:0.0196287 
-1 1:0.35 2:0.12963 3:0.0809377 
-1 1:0.35 2:0.12963 3:0.052105 
-1 1:0.35 2:0.194444 3:0.117872 
-1 1:0.35 2:0.233333 3:0.0556701 
-1 1:0.3 2:0.0625 3:0.0391006 
-1 1:0.4 2:0.190476 3:0.0479057 
-1 1:0.15 2:0.05 3:0.0393203 
-1 1:0.15 2:0.0714286 3:0.024027 
-1 1:0.4 2:0.333333 3:0.140895 
-1 1:0.15 2:0.0416667 3:0.0660757 
-1 1:0.25 2:0.104167 3:0.0908662 
-1 1:0.1 2:0.0208333 3:0.0214463 
-1 1:0.4 2:0.222222 3:0.0673434 
-1 1:0.2 2:0.111111 3:0.03403 
-1 1:0.35 2:0.166667 3:0.04278 
-1 1:0.35 2:0.291667 3:0.0452433 
-1 1:0.1 2:0.0416667 3:0.085202 
-1 1:0.25 2:0.119048 3:0.0362625 
-1 1:0.3 2:0.25 3:0.0468937 
-1 1:0.2 2:0.0952381 3:0.12959 
-1 1:0.2 2:0.111111 3:0.0494639 
-1 1:0.2 2:0.0833333 3:0.0424358 
-1 1:0.45 2:0.214286 3:0.0720294 
-1 1:0.4 2:0.133333 3:0.0410616 
-1 1:0.35 2:0.166667 3:0.0448678 
-1 1:0.35 2:0.233333 3:0.0477963 
-1 1:0.3 2:0.166667 3:0.0543118 
-1 1:0.25 2:0.104167 3:0.0444653 
-1 1:0.3 2:0.142857 3:0.0459295 
-1 1:0.35 2:0.166667 3:0.0577358 
-1 1:0.3 2:0.111111 3:0.0488411 
-1 1:0.25 2:0.208333 3:0.0579117 
-1 1:0.4 2:0.266667 3:0.0769903 
-1 1:0.25 2:0.138889 3:0.0357385 
-1 1:0.35 2:0.233333 3:0.0680354 
-1 1:0.2 2:0.133333 3:0.0466839 
-1 1:0.3 2:0.0909091 3:0.0372908 
-1 1:0.35 2:0.166667 3:0.0452644 
-1 1:0.25 2:0.119048 3:0.0669429 
-1 1:0.4 2:0.133333 3:0.0473982 
-1 1:0.4 2:0.133333 3:0.0754307 
-1 1:0.3 2:0.1 3:0.0492114 
-1 1:0.4 2:0.148148 3:0.0620082 
-1 1:0.2 2:0.0952381 3:8.02619e-006 
-1 1:0.2 2:0.0952381 3:0.0502961 
-1 1:0.45 2:0.166667 3:0.049749 
-1 1:0.25 2:0.138889 3:0.0642915 
-1 1:0.35 2:0.12963 3:0.0344683 
-1 1:0.25 2:0.138889 3:0.0656359 
-1 1:0.4 2:0.190476 3:0.0525678 
-1 1:0.25 2:0.0757576 3:0.0344754 
-1 1:0.4 2:0.111111 3:0.0500691 
-1 1:0.4 2:0.266667 3:0.0669287 
-1 1:0.35 2:0.145833 3:0.0710592 
-1 1:0.4 2:0.444444 3:0.0783528 
-1 1:0.35 2:0.291667 3:0.0331899 
-1 1:0.2 2:0.0512821 3:0.0611592 
-1 1:0.45 2:0.15 3:0.0658061 
-1 1:0.4 2:0.148148 3:0.0441857 
-1 1:0.45 2:0.3 3:0.0712676 
-1 1:0.25 2:0.208333 3:0.0919046 
-1 1:0.2 2:0.047619 3:0.0702672 
-1 1:0.45 2:0.136364 3:0.0490488 
-1 1:0.35 2:0.145833 3:0.0497955 
-1 1:0.3 2:0.1 3:0.0449363 
-1 1:0.4 2:0.222222 3:0.041015 
-1 1:0.3 2:0.25 3:0.0897601 
-1 1:0.3 2:0.142857 3:0.0698219 
-1 1:0.15 2:0.1 3:0.0618994 
-1 1:0.25 2:0.119048 3:0.0710169 
-1 1:0.25 2:0.0462963 3:0.0234589 
-1 1:0.15 2:0.125 3:0.0580618 
-1 1:0.2 2:0.222222 3:0.0506017 
-1 1:0.3 2:0.1 3:0.0521449 
-1 1:0.25 2:0.0833333 3:0.0471765 
-1 1:0.3 2:0.25 3:0.0543043 
-1 1:0.4 2:0.0888889 3:0.0784433 
-1 1:0.2 2:0.0666667 3:0.0691285 
-1 1:0.3 2:0.0769231 3:0.0690015 
-1 1:0.2 2:0.222222 3:0.0603014 
-1 1:0.3 2:0.166667 3:0.0874871 
-1 1:0.2 2:0.0833333 3:0.0643127 
-1 1:0.35 2:0.291667 3:0.0502764 
-1 1:0.35 2:0.291667 3:0.0400864 
-1 1:0.4 2:0.133333 3:0.0452641 
-1 1:0.25 2:0.208333 3:0.0327092 
-1 1:0.3 2:0.0833333 3:0.0634845 
-1 1:0.3 2:0.25 3:0.045086 
-1 1:0.35 2:0.166667 3:0.0443506 
-1 1:0.1 2:0.0416667 3:0.0376331 
-1 1:0.3 2:0.0666667 3:0.0531187 
-1 1:0.35 2:0.233333 3:0.0566354 
-1 1:0.25 2:0.0833333 3:0.058831 
-1 1:0.3 2:0.125 3:0.0924191 
-1 1:0.35 2:0.233333 3:0.0553054 
-1 1:0.35 2:0.12963 3:0.0669953 
-1 1:0.35 2:0.145833 3:0.041605 
-1 1:0.4 2:0.133333 3:0.0540662 
-1 1:0.3 2:0.142857 3:0.0548997 
-1 1:0.25 2:0.138889 3:0.189944 
-1 1:0.2 2:0.0952381 3:0.0476327 
-1 1:0.4 2:0.190476 3:0.0460906 
-1 1:0.5 2:0.208333 3:0.0889511 
-1 1:0.2 2:0.166667 3:0.0213951 
-1 1:0.2 2:0.133333 3:0.0479136 
-1 1:0.3 2:0.333333 3:0.0525904 
-1 1:0.4 2:0.190476 3:0.0422747 
-1 1:0.3 2:0.2 3:0.0576451 
-1 1:0.2 2:0.222222 3:0.0505899 
-1 1:0.25 2:0.166667 3:0.0384057 
-1 1:0.35 2:0.291667 3:0.0417025 
-1 1:0.35 2:0.0897436 3:0.0544752 
-1 1:0.35 2:0.291667 3:0.0504471 
-1 1:0.4 2:0.0784314 3:0.0283289 
-1 1:0.4 2:0.148148 3:0.0234804 
-1 1:0.3 2:0.333333 3:0.0495369 
-1 1:0.3 2:0.166667 3:0.0595204 
-1 1:0.4 2:0.148148 3:0.118634 
-1 1:0.35 2:0.106061 3:0.0788317 
-1 1:0.35 2:0.12963 3:0.0566418 
-1 1:0.3 2:0.111111 3:0.0724728 
-1 1:0.25 2:0.166667 3:0.0526497 
-1 1:0.35 2:0.166667 3:0.0262716 
-1 1:0.2 2:0.222222 3:0.0415179 
-1 1:0.3 2:0.25 3:0.0469184 
-1 1:0.35 2:0.233333 3:0.0460947 
-1 1:0.25 2:0.138889 3:0.0637717 
-1 1:0.15 2:0.1 3:0.0311221 
-1 1:0.2 2:0.166667 3:0.0547407 
-1 1:0.35 2:0.145833 3:0.0799384 
-1 1:0.2 2:0.0333333 3:0.0590582 
-1 1:0.4 2:0.190476 3:0.0826953 
-1 1:0.25 2:0.208333 3:0.054814 
-1 1:0.2 2:0.0833333 3:0.0414098 
-1 1:0.2 2:0.0833333 3:0.0248698 
-1 1:0.2 2:0.0666667 3:0.0491989 
-1 1:0.35 2:0.291667 3:0.0665749 
-1 1:0.3 2:0.142857 3:0.122202 
-1 1:0.25 2:0.119048 3:0.0560895 
-1 1:0.25 2:0.277778 3:0.0543029 
-1 1:0.4 2:0.133333 3:0.0760498 
-1 1:0.35 2:0.291667 3:0.0763324 
-1 1:0.25 2:0.208333 3:0.0420776 
-1 1:0.2 2:0.0952381 3:0.0472541 
-1 1:0.2 2:0.0666667 3:0.0525359 
-1 1:0.35 2:0.166667 3:0.0444774 
-1 1:0.35 2:0.291667 3:0.0902551 
-1 1:0.4 2:0.266667 3:0.0491974 
-1 1:0.2 2:0.0444444 3:0.0259904 
-1 1:0.4 2:0.333333 3:0.0527106 
-1 1:0.3 2:0.1 3:0.0967143 
-1 1:0.45 2:0.375 3:0.110858 
-1 1:0.45 2:0.136364 3:0.0566883 
-1 1:0.35 2:0.166667 3:0.0632919 
-1 1:0.15 2:0.0357143 3:0.0446861 
-1 1:0.35 2:0.194444 3:0.0488773 
-1 1:0.3 2:0.125 3:0.0597301 
-1 1:0.3 2:0.25 3:0.08401 
-1 1:0.35 2:0.116667 3:0.0516351 
-1 1:0.25 2:0.0757576 3:0.0619958 
-1 1:0.15 2:0.125 3:0.0726186 
-1 1:0.35 2:0.166667 3:0.044273 
-1 1:0.45 2:0.15 3:0.0475997 
-1 1:0.3 2:0.2 3:0.0398214 
-1 1:0.2 2:0.0606061 3:0.027668 
-1 1:0.15 2:0.0454545 3:0.0630953 
-1 1:0.4 2:0.148148 3:0.125491 
-1 1:0.35 2:0.291667 3:0.0414333 
-1 1:0.25 2:0.208333 3:0.0609108 
-1 1:0.3 2:0.0909091 3:0.0856936 
-1 1:0.35 2:0.291667 3:0.0633534 
-1 1:0.25 2:0.166667 3:0.0543869 
-1 1:0.3 2:0.1 3:0.0312727 
-1 1:0.3 2:0.2 3:0.0558722 
-1 1:0.2 2:0.0666667 3:0.0579846 
-1 1:0.45 2:0.125 3:0.0610838 
-1 1:0.2 2:0.0952381 3:0.0868437 
-1 1:0.25 2:0.166667 3:0.0236317 
-1 1:0.25 2:0.166667 3:0.0341865 
-1 1:0.2 2:0.0833333 3:0.03952 
-1 1:0.3 2:0.2 3:0.0335563 
-1 1:0.15 2:0.0555556 3:0.097673 
-1 1:0.25 2:0.166667 3:0.05662 
-1 1:0.2 2:0.0606061 3:0.0350427 
-1 1:0.3 2:0.25 3:0.0576622 
-1 1:0.2 2:0.0952381 3:0.0273951 
-1 1:0.35 2:0.12963 3:0.0616277 
-1 1:0.35 2:0.291667 3:0.0447708 
-1 1:0.25 2:0.0694444 3:0.0986942 
-1 1:0.3 2:0.125 3:0.0344828 
-1 1:0.4 2:0.0833333 3:0.0446524 
-1 1:0.35 2:0.116667 3:0.085355 
-1 1:0.45 2:0.1 3:0.0425171 
-1 1:0.3 2:0.142857 3:0.065702 
-1 1:0.25 2:0.119048 3:0.0599101 
-1 1:0.35 2:0.233333 3:0.124679 
-1 1:0.15 2:0.0833333 3:0.0533919 
-1 1:0.25 2:0.138889 3:0.115902 
-1 1:0.35 2:0.233333 3:0.0578084 
-1 1:0.3 2:0.111111 3:0.056028 
-1 1:0.4 2:0.133333 3:0.11027 
-1 1:0.2 2:0.222222 3:0.0523024 
-1 1:0.3 2:0.111111 3:0.0764129 
-1 1:0.3 2:0.2 3:0.0555227 
-1 1:0.4 2:0.133333 3:0.0677141 
-1 1:0.2 2:0.0555556 3:0.0651031 
-1 1:0.4 2:0.333333 3:0.0493041 
-1 1:0.3 2:0.142857 3:0.0594924 
-1 1:0.35 2:0.166667 3:0.0498978 
-1 1:0.3 2:0.25 3:0.0822979 
-1 1:0.25 2:0.138889 3:0.0529725 
-1 1:0.35 2:0.233333 3:0.0576438 
-1 1:0.3 2:0.166667 3:0.070551 
-1 1:0.35 2:0.166667 3:0.0548485 
-1 1:0.2 2:0.111111 3:0.0620709 
-1 1:0.3 2:0.1 3:0.0439977 
-1 1:0.2 2:0.0512821 3:0.0506317 
-1 1:0.4 2:0.190476 3:0.0603138 
-1 1:0.3 2:0.125 3:0.0749756 
-1 1:0.4 2:0.166667 3:0.104552 
-1 1:0.35 2:0.0972222 3:0.0413871 
-1 1:0.35 2:0.0897436 3:0.0389798 
-1 1:0.3 2:0.111111 3:0.0781087 
-1 1:0.25 2:0.0925926 3:0.0503957 
-1 1:0.35 2:0.233333 3:0.0692857 
-1 1:0.35 2:0.12963 3:0.0612296 
-1 1:0.45 2:0.166667 3:0.0625953 
-1 1:0.35 2:0.194444 3:0.038914 
-1 1:0.2 2:0.133333 3:0.0392319 
-1 1:0.15 2:0.125 3:0.0800633 
-1 1:0.25 2:0.277778 3:0.059101 
-1 1:0.25 2:0.0925926 3:0.048519 
-1 1:0.4 2:0.166667 3:0.057074 
-1 1:0.35 2:0.166667 3:0.0362052 
-1 1:0.35 2:0.291667 3:0.0510906 
-1 1:0.3 2:0.166667 3:0.0535683 
-1 1:0.2 2:0.222222 3:0.0591959 
-1 1:0.4 2:0.166667 3:0.0460162 
-1 1:0.35 2:0.194444 3:0.0586015 
-1 1:0.25 2:0.166667 3:0.0521985 
-1 1:0.15 2:0.1 3:0.0852749 
-1 1:0.3 2:0.0833333 3:0.0545602 
-1 1:0.25 2:0.119048 3:0.0456692 
-1 1:0.35 2:0.166667 3:0.0388772 
-1 1:0.15 2:0.1 3:0.0523097 
-1 1:0.2 2:0.047619 3:0.0517792 
-1 1:0.2 2:0.166667 3:0.113692 
-1 1:0.4 2:0.121212 3:0.0514038 
-1 1:0.4 2:0.190476 3:0.0470267 
-1 1:0.35 2:0.388889 3:0.0293927 
-1 1:0.2 2:0.0555556 3:0.0637184 
-1 1:0.5 2:0.333333 3:0.0962065 
-1 1:0.2 2:0.0666667 3:0.0495919 
-1 1:0.45 2:0.1 3:0.0812933 
-1 1:0.35 2:0.166667 3:0.0610879 
-1 1:0.25 2:0.104167 3:0.0561339 
-1 1:0.25 2:0.138889 3:0.0651879 
-1 1:0.3 2:0.0833333 3:0.0344958 
-1 1:0.3 2:0.25 3:0.0391883 
-1 1:0.3 2:0.166667 3:0.0408849 
-1 1:0.25 2:0.138889 3:0.0796276 
-1 1:0.3 2:0.0833333 3:0.0603022 
-1 1:0.35 2:0.233333 3:0.0741832 
-1 1:0.4 2:0.444444 3:0.0559744 
-1 1:0.25 2:0.119048 3:0.0543574 
-1 1:0.2 2:0.0666667 3:0.0506825 
-1 1:0.3 2:0.166667 3:0.0417442 
-1 1:0.35 2:0.291667 3:0.0884665 
-1 1:0.2 2:0.0833333 3:0.0623553 
-1 1:0.35 2:0.388889 3:0.0584394 
-1 1:0.35 2:0.116667 3:0.0537684 
-1 1:0.25 2:0.166667 3:0.0608615 
-1 1:0.45 2:0.136364 3:0.0632869 
-1 1:0.2 2:0.111111 3:0.0649665 
-1 1:0.3 2:0.2 3:0.0486411 
-1 1:0.25 2:0.0925926 3:0.0465513 
-1 1:0.25 2:0.0641026 3:0.0592316 
-1 1:0.15 2:0.0714286 3:0.0575791 
-1 1:0.2 2:0.166667 3:0.0268855 
-1 1:0.15 2:0.0416667 3:0.0967592 
-1 1:0.25 2:0.208333 3:0.0858383 
-1 1:0.3 2:0.25 3:0.0897455 
-1 1:0.3 2:0.111111 3:0.0660101 
-1 1:0.45 2:0.1875 3:0.0574546 
-1 1:0.2 2:0.0740741 3:0.0653221 
-1 1:0.15 2:0.0714286 3:0.0455223 
-1 1:0.2 2:0.166667 3:0.0478421 
-1 1:0.35 2:0.166667 3:0.0286624 
-1 1:0.25 2:0.166667 3:0.0953998 
-1 1:0.25 2:0.0757576 3:0.0697217 
-1 1:0.4 2:0.266667 3:0.0739125 
-1 1:0.25 2:0.104167 3:0.0537198 
-1 1:0.45 2:0.166667 3:0.0669969 
-1 1:0.3 2:0.125 3:0.0244026 
-1 1:0.4 2:0.444444 3:0.0926831 
-1 1:0.35 2:0.233333 3:0.10954 
-1 1:0.3 2:0.25 3:0.0618013 
-1 1:0.3 2:0.25 3:0.0485243 
-1 1:0.3 2:0.142857 3:0.0496629 
-1 1:0.15 2:0.0714286 3:0.0852674 
-1 1:0.25 2:0.119048 3:0.0412412 
-1 1:0.45 2:0.166667 3:0.0457037 
-1 1:0.35 2:0.0777778 3:0.0730689 
-1 1:0.1 2:0.0333333 3:0.0656326 
-1 1:0.35 2:0.291667 3:0.0827199 
-1 1:0.3 2:0.166667 3:0.0424818 
-1 1:0.2 2:0.0666667 3:0.124752 
-1 1:0.25 2:0.0925926 3:0.0468401 
-1 1:0.4 2:0.121212 3:0.0320202 
-1 1:0.35 2:0.145833 3:0.069417 
-1 1:0.3 2:0.142857 3:0.185492 
-1 1:0.35 2:0.291667 3:0.0584401 
-1 1:0.2 2:0.0555556 3:0.0598295 
-1 1:0.35 2:0.145833 3:0.0234057 
-1 1:0.45 2:0.166667 3:0.0876991 
-1 1:0.35 2:0.291667 3:0.0608338 
